tree
version=v4
num_class=3
num_tree_per_iteration=3
label_index=0
max_feature_idx=105
objective=multiclass num_class:3
feature_names=minute 1 2 X Accurate_Crosses_-_away Accurate_Crosses_-_home Assists_-_away Assists_-_home Attacks_-_away Attacks_-_home Ball_Possession_%_-_away Ball_Possession_%_-_home Ball_Safe_-_away Ball_Safe_-_home Challenges_-_away Challenges_-_home Corners_-_away Corners_-_home Counter_Attacks_-_away Counter_Attacks_-_home Dangerous_Attacks_-_away Dangerous_Attacks_-_home Dribble_Attempts_-_away Dribble_Attempts_-_home Fouls_-_away Fouls_-_home Free_Kicks_-_away Free_Kicks_-_home Goal_Attempts_-_away Goal_Attempts_-_home Goal_Kicks_-_away Goal_Kicks_-_home Goals_-_away Goals_-_home Headers_-_away Headers_-_home Hit_Woodwork_-_away Hit_Woodwork_-_home Injuries_-_away Injuries_-_home Interceptions_-_away Interceptions_-_home Key_Passes_-_away Key_Passes_-_home Long_Passes_-_away Long_Passes_-_home Offsides_-_away Offsides_-_home Passes_-_away Passes_-_home Penalties_-_away Penalties_-_home Redcards_-_away Redcards_-_home Saves_-_away Saves_-_home Score_Change_-_away Score_Change_-_home Shots_Blocked_-_away Shots_Blocked_-_home Shots_Insidebox_-_away Shots_Insidebox_-_home Shots_Off_Target_-_away Shots_Off_Target_-_home Shots_On_Target_-_away Shots_On_Target_-_home Shots_Outsidebox_-_away Shots_Outsidebox_-_home Shots_Total_-_away Shots_Total_-_home Substitutions_-_away Substitutions_-_home Successful_Dribbles_-_away Successful_Dribbles_-_home Successful_Headers_-_away Successful_Headers_-_home Successful_Interceptions_-_away Successful_Interceptions_-_home Successful_Passes_-_away Successful_Passes_-_home Successful_Passes_Percentage_-_away Successful_Passes_Percentage_-_home Tackles_-_away Tackles_-_home Throwins_-_away Throwins_-_home Total_Crosses_-_away Total_Crosses_-_home Yellowcards_-_away Yellowcards_-_home Yellowred_Cards_-_away Yellowred_Cards_-_home p_home p_away p_tie p_home_norm p_away_norm p_tie_norm p_home_min_away p_home_min_away_norm hf_1st-half hf_2nd-half current_state_1 current_state_2 current_state_X match_minute
feature_infos=[0:80] [1:501] [1:501] [1:51] [0:11] [0:13] [0:3] [0:3] [0:170] [0:174] [0:100] [0:100] [0:123] [0:111] [0:17] [0:22] [0:17] [0:17] [0:10] [0:13] [0:163] [0:140] [0:29] [0:32] [0:23] [0:22] [0:23] [0:17] [0:15] [0:24] [0:20] [0:17] [0:4] [0:5] [0:61] [0:69] [0:3] [0:3] [0:5] [0:5] [0:17] [0:22] [0:18] [0:25] [0:51] [0:44] [0:7] [0:10] [0:841] [0:776] [0:2] [0:2] [0:2] [0:1] [0:12] [0:8] none none [0:12] [0:12] [0:15] [0:27] [0:12] [0:17] [0:11] [0:15] [0:14] [0:18] [0:24] [0:35] [0:8] [0:8] [0:19] [0:20] [0:28] [0:28] [0:31] [0:30] [0:765] [0:724] [0:100] [0:100] [0:32] [0:32] [0:31] [0:45] [0:40] [0:44] [0:8] [0:6] [0:2] [0:1] [0.001996007984031936:1] [0.001996007984031936:1] [0.019607843137254902:1] [0.0019013350524393602:0.97885300540167797] [0.0019170049616599007:0.97885300540167797] [0.019082235347569289:0.94444444444444442] [-0.99800399201596801:0.99800399201596801] [-0.97689920698770261:0.97689920698770261] [0:1] [0:1] [0:1] [0:1] [0:1] [0:104]
tree_sizes=954 972 974 999 997 1007 988 1005 1005 1011 1015 986 1007 1007 993 905 1011 994 1013 1009 1016 896 1007 1000 883 1011 1007 1002 1015 1001 1009 1012 996 1011 1017 1010 986 990 993 1015 1007 1016 1005 994 1019 1006 1014 1018 1010 1019 990 1014 1003 1016 1014 1016 1007 1018 1018 996 1009 1012 1019 1007 1015 1016 880 996 1011 996 1018 1012 999 1017 1018 1020 1010 1006 994 1006 1003 997 1012 1015 1020 1015 1024 1014 1011 996 1019 996 1015 1026 1013 1014 1005 1017 1009 1002 1016 1013 883 1019 1019 1016 1017 1007 1020 991 1022 1008 1011 1015 906 1010 1011 882 1019 1004 1028 1013 1014 991 1009 1004 1012 1007 1017 998 1020 1002 1012 1012 1018 1021 1009 1021 1012 989 1004 1020 1019 1019 1018 1016 1020 1005 1013 1018 1014 1011 999 1002 1017 1004 1014 1009 1025 1007 1006 1014 1018 1001 1029 1020 1010 1013 1011 1017 1003 1013 1002 1013 1012 1012 1017 1020 1012 1023 1008 1020 1009 897 1015 1022 1001 1015 1021 1019 1016 1017 1017 1018 1015 1002 1007 1024 1017 1022 1019 1019 1007 1012 995 1003 1020 1017 1015 1017 887 1015 1017 1010 1007 1020 1011 1015 995 988 1013 1021 1005 1014 1030 1021 1013 1022 1020 1007 1017 1015 1014 1013 1000 1015 1023 1021 1013 1021 1008 1013 1021 994 1006 1014 1005 1007 1013 1013 1023 1020 1006 992 1014 1010 1010 1004 1032 1015 1007 996 1009 1015 1019 1015 1017 1017 1017 1001 885 1020 1014 1008 1018 1012 1008 1013 999 1011 1011 1021 1018 1013 1021 889 1008 1005 1018 1008 1026 1002 1018 1018 1020 1017 1020 1023 1004 1017 886 910 1021 1013 1010 1020 895 1023 1009 897 1015 1016 1008 1012 1023 1020 1015 1016 1012 1017 999 993 1012 1014 1020 1010 1004 1023 1017 1019 995 1016 1018 1005 1017 1001 1018 1014 1018 1022 1015 1013 1018 1013 1005 1023 1020 1012 1012 1011 1026 898 1019 1021 1009 1010 1022 888 916 1013 1011 1015 1001 897 1013 1010 987 1018 1021 1006 1008 1012 1015 1015 1021 892 1017 1017 1018 1007 1014 1014 1018 1002 891 1011 1019 1002 1017 1027 1010 1022 1030 1015 1012 1024 1004 1017 1016 901 1016 1013 1008 1010 1016 1007 1013 1013 896 1019 1018 877 1015 1014 993 1009 1016 1007 1012 1024 1015 1015 1012 891 1019 1023 897 1009 1012 1016 1016 1009 1003 1014 1017 1014 1009 1005 996 1011 1012 1013 1025 1010 1005 1005 1015 912 1007 1027 890 910 1013 1017 1014 1023 1001 890 1018 898 1019 1011 910 1011 1014 1009 1008 1021 1009 903 1011 1024 1016 1015 1002 1014 1021 897 1011 1016 1023 1003 1018 1020 1015 1028 893 909 1018 1021 912 1014 1020 1010 1012 1020 1019 1024 897 916 1024 1004 1010 1009 677 999 902 678 1008 1029 1012 1014 1024 1025 997 1017 779 1000 1020 997 993 999 1015 916 1029 981 996 1012 998 997 1018 1015 1021 1015 1007 996 1003 888 1016 1008 672 996 1005 1004 1012 1019 1010 1011 1024 1001 1016 1013 1019 1014 1016 1007 1015 1027 986 989 1018 892 1009 1023 1003 979 1019 1019 1024 1024 1022 1017 1019 1014 1015 1031 669 1019 1030 676 1002 1025 895 1016 1022 1002 1009 1010 1006 1018 1027 794 1021 1012 993 1001 1024 672 995 1000 999 1007 1012 1000 1021 1032 670 1016 889 674 1012 1017 1000 1018 998 1004 983 1025 678 1013 1007 903 1023 1013 996 1012 1013 998 994 1013 679 1023 1026 1015 913 1013 1018 1020 1019 1017 1024 1010 1004 1016 1032 1028 1005 1016 1002 1012 1010 995 990 894 921 1023 1013 1010 1015 1018 1007 1018 1017 997 1013 1013 998 1021 1026 1011 1011 1010 905 1015 1025 894 1019 1020 1017 1020 1024 902 1019 1031 881 1017 1017 1016 994 1016 1021 1019 1013 794 1015 990 1018 1024 891 1000 1016 1012 1018 1013 1030 994 1010 1010 1021 1019 1022 1019 999 1017 900 1025 1018 899 1014 892 1013 1016 1017 995 801 1015 1006 1021 895 678 907 1000 884 1010 1023 895 1012 1024 1000 1004 1024 910 1018 1018 1022 1021 1023 675 1027 1024 876 1013 1019 674 1020 1034 666 1020 1015 796 1011 1033 897 1006 896 1008 1014 1003 1015 1016 1024 1025 1017 1027 1000 1016 1016 875 1016 897 895 1013 1033 1001 1014 1027 1015 1027 1015 899 1024 915 993 1015 1004 893 1002 1010 895 1012 1035 678 1016 1013 876 1013 896 1004 1019 1035 673 1006 1028 1030 921 889 1008 1019 897 1027 1017 1020 896 1015 898 1008 915 890 667 1020 1013 1009 995 1016 1015 1016 1014 1004 1002 1013 1025 1017 1021 665 917 893 672 1013 1018 666 913 1010 667 903 896 1016 1013 1012 675 1023 1021 1004 688 1021 907 1029 894 902 1020 913 902 907 1010 1019 1014 1013 670 1000 893 1016 1012 1018 995 1020 1016 1012 1010 894 878 1012 1020 1017 902 1015 1009 899 1019 1024 886 1012 1000 1010 1014 1018 1016 1026 1017 992 1020 678 1003 1006 1019 1012 1020 904 904 1027 1015 1023 904 1016 1011 1013 896 1007 1019 810 902 1025 673 1013 893 682 799 892 1018 915 1016 799 909 1019 1007 904 1025 682 918 1012 677 912 1002 892 890 910 911 1024 881 1019 1010 899 1025 1019 1020 675 917 1012 1019 905 904 1016 1010 913 682 1020 1019 902 798 1022 672 1020 997 678 915 1014 902 1023 1016 1013 906 1012 891 1022 1015 676 907 1019 683 919 1017 671 901 1023 1019 912 913 680 1016 1018 1012 906 1014 1025 796 1021 687 1024 1017 670 1016 920 1012 1021 918 1019 1001 898 677 901 1011 672 901 893 673 887 1016 901 910 1024 681 911 1011 685 1020 893 679 993 895 904 1032 1018 913 913 894 898 907 1021 680 910 1018 674 1009 910 1017 1024 1018 1009 904 900 899 1022 1008 1016 1010 914 1021 909 916 1019 798 1013 1022 1024 1016 1010 909 916 1025 924 914 1024 1018 1001 1017 1025 1027 1014 921 1017 678 1024 902 1024 1021 910 1021 906 1023 1018 1020 1027 680 998 1024 1008 1024 1020 673 797 910 1015 914 1002 1011 798 910 1019 795 1021 1019 799 1020 681 1019 1010 674 1026 1024 683 1020 1016 1009 908 1018 1019 890 1020 671 910 909 677 805 916 679 907 1029 672 802 1002 681 793 1024 1022 907 1023 672 907 1009 677 998 1025 893 695 917 682 920 915 667 902 996 673 908 1020 805 897 1012 1001 800 1025 677 918 911 679 1021 904 1023 917 1018 1015 804 1025 1010 1022 1021 1011 907 1020 1022 915 1018 1015 693 1016 1024 905 906 1021 1019 1021 673 905 908 670 1018 1016 678 1013 915 1011 913 911 682 916 894 792 696 1013 894 1013 1025 1018 917 915 794 916 1028 908 922 1007 1018 1026 1012 680 1019 1019 685 1017 915 896 1015 1017 1015 700 910 1006 1023 912 679 1024 1020 673 798 1022 1021 902 1023 685 912 1021 1018 912 916 795 798 1023 1018 1015 914 669 697 1018 1018 691 909 680 696 1017 893 924 1023 898 915 1018 1018 1015 1026 670 1020 1028 903 795 906 899 884 1012 791 909 996 1013 908 1025 675 795 904 1016 1013 1021 667 800 1022 681 802 1018 793 803 1021 677 811 903 796 695 1023 1013 701 1027 991 798 980 1030 1016 918 1019 805 1014

Tree=0
num_leaves=8
num_cat=0
split_feature=3 7 79 3 48 25 85
split_gain=1962.95 1288.86 473.867 261.076 206.363 69.9477 27.1789
threshold=3.5500000000000003 inf 275.50000000000006 6.7500000000000009 260.50000000000006 11.500000000000002 4.5000000000000009
decision_type=2 8 2 2 2 10 2
left_child=1 2 -1 5 -3 -2 -5
right_child=3 4 -4 6 -6 -7 -8
leaf_value=-1.3129061931093422 -1.3149431901315187 -1.3044371243898516 -1.3059018750889471 -1.3161968381362628 -1.2973935912689465 -1.3105207459841492 -1.3184013302164628
leaf_weight=2678.0911264717579 2786.0525046288967 683.75539499521255 650.12808048725128 377.2748706638813 339.81286239624023 207.36843946576118 1746.5555193126202
leaf_count=9079 9445 2318 2204 1279 1152 703 5921
internal_value=-1.31295 -1.30931 -1.31154 -1.31604 -1.30209 -1.31464 -1.31801
internal_weight=0 4351.79 3328.22 5117.25 1023.57 2993.42 2123.83
internal_count=32101 14753 11283 17348 3470 10148 7200
is_linear=0
shrinkage=1


Tree=1
num_leaves=8
num_cat=0
split_feature=1 1 94 7 10 94 1
split_gain=6504.22 723.901 598.02 344.808 103.709 67.3864 12.1828
threshold=1.925 7.2500000000000009 0.20526315789473687 1.0000000180025095e-35 56.500000000000007 0.14835164835164838 22.000000000000004
decision_type=2 2 2 10 2 2 2
left_child=2 3 5 -2 -4 -1 -3
right_child=1 6 4 -5 -6 -7 -8
leaf_value=-0.87341412507618632 -0.88772258030848572 -0.89086406527998352 -0.88049818316099115 -0.88346491924615866 -0.87647662139647642 -0.87607226865166221 -0.89197517251321679
leaf_weight=1642.167676538229 3346.8941217064857 1200.9828721880913 1647.2596693336964 1486.1344687342644 442.63965943455696 776.52890130877495 1132.9683969914913
leaf_count=4515 9202 3302 4529 4086 1217 2135 3115
internal_value=-0.883683 -0.888039 -0.876758 -0.886413 -0.879644 -0.874266 -0.891405
internal_weight=0 7166.98 4508.6 4833.03 2089.9 2418.7 2333.95
internal_count=32101 19705 12396 13288 5746 6650 6417
is_linear=0
shrinkage=1


Tree=2
num_leaves=8
num_cat=0
split_feature=98 96 97 96 19 98 97
split_gain=6085.26 1001.94 662.35 148.097 132.796 91.172 52.8314
threshold=-0.2328282828282828 0.23395383041240833 0.24923050095684895 0.11876210138593614 9.5000000000000018 0.036614997905320502 0.27668876817901039
decision_type=2 2 2 2 8 2 2
left_child=2 3 4 -2 -1 -3 -4
right_child=1 5 6 -5 -6 -7 -8
leaf_value=-1.1330944155283704 -1.1527685440694635 -1.1448256467085591 -1.1401924064831264 -1.1501597748930092 -1.1372733397750703 -1.1476689218992797 -1.1435861709769961
leaf_weight=1126.6752581298351 3338.7306061983109 1324.0466525554657 450.0197856426239 1834.5459758639336 663.64912030100822 1132.2029578089714 568.05243173241615
leaf_count=3465 10268 4072 1384 5642 2041 3482 1747
internal_value=-1.1466 -1.15001 -1.13734 -1.15184 -1.13464 -1.14614 -1.14208
internal_weight=0 7629.53 2808.4 5173.28 1790.32 2456.25 1018.07
internal_count=32101 23464 8637 15910 5506 7554 3131
is_linear=0
shrinkage=1


Tree=3
num_leaves=8
num_cat=0
split_feature=6 99 19 95 33 39 19
split_gain=1499.23 678.646 606.88 380.037 351.012 32.9656 32.0441
threshold=inf 0.47901675640316016 1.0000000180025095e-35 0.82544758900668846 1.0000000180025095e-35 1.5000000000000002 1.0000000180025095e-35
decision_type=8 2 10 2 2 8 10
left_child=3 2 -2 4 -1 -3 -5
right_child=1 5 -4 6 -6 -7 -8
leaf_value=-0.0020045107198679076 0.0052643003767561224 -0.0011278001172666181 0.016224855982906149 -0.006221769881499333 0.0013644003803592131 -0.0064500191057529216 -0.0037509737111752037
leaf_weight=3952.9066624939442 750.7094341814518 121.95608723163605 431.72717329859734 643.8785936832428 2905.184087395668 134.18778955936432 528.37207978963852
leaf_count=13407 2534 414 1454 2191 9847 456 1798
internal_value=0 0.00691793 0.00927095 -0.0012394 -0.000576945 -0.003931 -0.0051116
internal_weight=0 1438.58 1182.44 8030.34 6858.09 256.144 1172.25
internal_count=32101 4858 3988 27243 23254 870 3989
is_linear=0
shrinkage=0.00735912


Tree=4
num_leaves=8
num_cat=0
split_feature=1 1 97 7 10 97 1
split_gain=6399.81 715.843 600.805 340.782 82.5578 73.9782 12.1038
threshold=1.925 7.2500000000000009 0.19799097813711505 1.0000000180025095e-35 56.500000000000007 0.14325443272303548 22.000000000000004
decision_type=2 2 2 10 2 2 2
left_child=2 3 5 -2 -4 -1 -3
right_child=1 6 4 -5 -6 -7 -8
leaf_value=0.010144732514610625 -0.0040140309660368174 -0.0071396079130275451 0.0030591147130595631 0.00021947477448722299 0.0067814790430990443 0.007461558468758729 -0.0082482828432510671
leaf_weight=1673.2196223139763 3343.3027047514915 1198.5634585022926 1578.2373984754086 1486.0506975352764 408.42982557415962 857.08598214387894 1130.4106414318085
leaf_count=4588 9202 3302 4335 4086 1121 2352 3115
internal_value=0 -0.00432802 0.00685877 -0.00271074 0.00382656 0.00923778 -0.00767974
internal_weight=0 7158.33 4516.97 4829.35 1986.67 2530.31 2328.97
internal_count=32101 19705 12396 13288 5456 6940 6417
is_linear=0
shrinkage=0.00735912


Tree=5
num_leaves=8
num_cat=0
split_feature=96 96 96 96 28 28 97
split_gain=5925.55 1311.43 335.292 164.355 154.599 65.9319 63.4103
threshold=0.51122707664409284 0.23742663296966743 0.70407705846413549 0.13343768498571776 2.5000000000000004 6.5000000000000009 0.27668876817901039
decision_type=2 2 2 2 10 10 2
left_child=1 3 6 -1 -3 -4 -2
right_child=2 4 5 -5 -6 -7 -8
leaf_value=-0.0060795355550491122 0.0078441906260249324 0.0001491927454129328 0.013182236118552806 -0.0033351145946055572 0.0042928414619234773 0.0090107534794331094 0.0032816334487220213
leaf_weight=3495.1195676922798 683.63793134689331 2155.8134768307209 1197.9374227523804 1796.5362968742847 630.62564688920975 256.58310747146606 221.4775455892086
leaf_count=10786 2093 6625 3660 5535 1938 784 680
internal_value=0 -0.00299686 0.0102588 -0.00514855 0.00108834 0.0124499 0.00673218
internal_weight=0 8078.09 2359.64 5291.66 2786.44 1454.52 905.115
internal_count=32101 24884 7217 16321 8563 4444 2773
is_linear=0
shrinkage=0.00735912


Tree=6
num_leaves=8
num_cat=0
split_feature=3 7 3 16 3 63 28
split_gain=1916.05 1237.5 454.879 360.137 257.198 72.3363 71.1131
threshold=3.5500000000000003 inf 1.5900000000000003 1.5000000000000002 6.7500000000000009 2.5000000000000004 6.5000000000000009
decision_type=2 8 2 2 2 2 10
left_child=1 2 -1 -3 5 -2 -6
right_child=4 3 -4 -5 6 -7 -8
leaf_value=0.0098761907483173959 -0.0024231849364456958 0.0062832143363128808 0.00051997845617095695 0.014980792337456732 -0.0055063752316992839 7.1228903396400022e-05 -0.0011726790591176249
leaf_weight=310.21296742558479 2091.0227165520191 521.91485011577606 3023.188846886158 513.72767224907875 1878.7457481324673 897.41383308172226 232.41242936253548
leaf_count=1045 7102 1752 10238 1718 6409 3046 791
internal_value=0 0.00357657 0.00139218 0.0106028 -0.00306396 -0.00167314 -0.00503091
internal_weight=0 4369.04 3333.4 1035.64 5099.59 2988.44 2111.16
internal_count=32101 14753 11283 3470 17348 10148 7200
is_linear=0
shrinkage=0.00735912


Tree=7
num_leaves=8
num_cat=0
split_feature=92 92 3 92 11 73 3
split_gain=6300.6 708.415 575.074 173.404 101.783 90.4464 64.2041
threshold=0.51956815114709864 0.27402402402402409 4.8750000000000009 0.12916666666666668 43.500000000000007 6.5000000000000009 6.7500000000000009
decision_type=2 2 2 2 2 10 2
left_child=1 3 4 -1 -2 -3 -4
right_child=2 5 6 -5 -6 -7 -8
leaf_value=-0.0077107104310112995 0.0070908804706740283 -0.0019644171467306354 0.007471094072781289 -0.0046435378256032972 0.0031186968822515095 0.0033925014064168551 0.010060837798137089
leaf_weight=2222.0488596260548 445.90715932846069 2918.2047212719917 779.48191559314728 1828.7997734844685 1648.5789644420147 180.70855954289436 1650.7772659957409
leaf_count=6137 1222 8033 2135 5038 4524 497 4515
internal_value=0 -0.0043008 0.00679568 -0.00632707 0.00396645 -0.00165083 0.00923219
internal_weight=0 7149.76 4524.75 4050.85 2094.49 3098.91 2430.26
internal_count=32101 19705 12396 11175 5746 8530 6650
is_linear=0
shrinkage=0.00735912


Tree=8
num_leaves=8
num_cat=0
split_feature=2 2 2 7 2 19 7
split_gain=5795.72 1122.64 496.919 278.777 165.845 94.6771 93.7555
threshold=1.9750000000000003 3.7750000000000004 1.3800000000000001 1.0000000180025095e-35 7.2500000000000009 9.5000000000000018 1.0000000180025095e-35
decision_type=2 2 2 8 2 8 10
left_child=2 3 5 -2 -3 -1 -4
right_child=1 4 6 -5 -6 -7 -8
leaf_value=0.013478007048324414 0.0031637929932445659 -0.0033233624813642708 0.006845201747370834 -0.0017472677466682596 -0.0060680543934692978 0.0096571269140592556 0.0018247524147404833
leaf_weight=990.04998159408569 1332.9911082088947 1832.5351192057133 819.30186277627945 1179.0761944949627 3451.8857736587524 561.52841266989708 269.77363547682762
leaf_count=3005 4089 5656 2503 3625 10690 1707 826
internal_value=0 -0.00319161 0.00942234 0.000857533 -0.005117 0.0120987 0.00560501
internal_weight=0 7796.49 2640.65 2512.07 5284.42 1551.58 1089.08
internal_count=32101 24060 8041 7714 16346 4712 3329
is_linear=0
shrinkage=0.00735912


Tree=9
num_leaves=8
num_cat=0
split_feature=94 94 94 94 94 63 68
split_gain=1888.44 741.447 255.137 111.647 76.1306 71.7772 32.0258
threshold=0.2817460317460318 0.56847545219638251 0.14835164835164838 0.37265787647467041 0.72478991596638664 2.5000000000000004 11.500000000000002
decision_type=2 2 2 2 2 2 2
left_child=2 3 6 -2 -3 -4 -1
right_child=1 4 5 -5 -6 -7 -8
leaf_value=-0.0054036976502926416 0.0013882167174729826 0.0085042913262148735 -0.0024113848153254321 0.0041457636143343579 0.013569766417305182 7.4141861308574261e-05 -0.0028730865042287906
leaf_weight=1776.5696766674519 2546.8168925642967 388.15804022550583 2087.9952296614647 1160.0263306200504 284.16760450601578 897.16781574487686 327.21782651543617
leaf_count=6083 8607 1299 7102 3902 945 3046 1117
internal_value=0 0.00354316 -0.00304842 0.00225219 0.0106534 -0.00166339 -0.00501188
internal_weight=0 4379.17 5088.95 3706.84 672.326 2985.16 2103.79
internal_count=32101 14753 17348 12509 2244 10148 7200
is_linear=0
shrinkage=0.00735912


Tree=10
num_leaves=8
num_cat=0
split_feature=99 96 97 99 97 10 99
split_gain=6138.61 739.919 360.706 252.369 70.4427 68.2709 20.7429
threshold=0.37282879921497136 0.56750329461793625 0.19799097813711505 0.19447230428581605 0.14325443272303548 56.500000000000007 -0.57962867247572236
decision_type=2 2 2 2 2 2 2
left_child=1 3 4 -1 -2 -4 -3
right_child=2 6 5 -5 -6 -7 -8
leaf_value=-0.0032246258088917869 0.0099416604157075445 -0.0078258261721341118 0.0036699687501039009 0.00062981284332284883 0.0073280512436588938 0.0076639675969457036 -0.0060923604536576139
leaf_weight=4268.0524391233921 1681.5148279368877 1717.9983662366867 1173.5589531064034 1171.0224403738976 860.13906154036522 291.69125488400459 509.23132860660553
leaf_count=11764 4588 4758 3217 3217 2352 798 1407
internal_value=0 -0.00385822 0.00738134 -0.00239421 0.00905906 0.00446815 -0.00743148
internal_weight=0 7666.3 4006.9 5439.07 2541.65 1465.25 2227.23
internal_count=32101 21146 10955 14981 6940 4015 6165
is_linear=0
shrinkage=0.00735912


Tree=11
num_leaves=8
num_cat=0
split_feature=99 2 97 6 2 18 75
split_gain=5787.55 964.41 603.479 187.619 164.652 126.08 68.5675
threshold=-0.21950331108177404 3.7750000000000004 0.24923050095684895 1.5000000000000002 7.2500000000000009 inf 1.5000000000000002
decision_type=2 2 2 8 2 8 8
left_child=2 3 5 -2 -3 -1 -4
right_child=1 4 6 -5 -6 -7 -8
leaf_value=0.012988632597188595 0.0016688359406065996 -0.0033053762161306286 0.0081046436410506691 -0.0034675102545278715 -0.0060434733502334019 0.0089516162045094622 0.0034147527265618563
leaf_weight=1148.2237200737 1840.5983538031578 1829.2177453935146 215.96580669283867 486.61447954177856 3439.8336693644524 674.49844226241112 801.19249519705772
leaf_count=3465 5644 5656 659 1499 10690 2041 2447
internal_value=0 -0.00335101 0.00896245 0.000593299 -0.00509366 0.0114976 0.00441502
internal_weight=0 7596.26 2839.88 2327.21 5269.05 1822.72 1017.16
internal_count=32101 23489 8612 7143 16346 5506 3106
is_linear=0
shrinkage=0.00735912


Tree=12
num_leaves=8
num_cat=0
split_feature=3 3 3 18 3 63 8
split_gain=1861.16 725.314 253.195 161.827 73.8289 71.2035 28.2363
threshold=3.5500000000000003 1.7600000000000002 6.7500000000000009 1.0000000180025095e-35 1.3800000000000001 2.5000000000000004 102.50000000000001
decision_type=2 2 2 10 2 2 2
left_child=1 4 5 -3 -1 -2 -4
right_child=2 3 6 -5 -6 -7 -8
leaf_value=0.013377566269402777 -0.0023991203999431262 0.0031674674259129436 -0.0052041573579228624 -0.00028818219277999428 0.0084050945289344623 7.7262764896893796e-05 -0.0014863708629111979
leaf_weight=286.39925393462181 2084.845602273941 2708.1797595322132 1976.5851560533047 1004.4976255297661 390.14865872263908 896.90393722057343 119.91052746772766
leaf_count=945 7102 9126 6789 3383 1299 3046 411
internal_value=0 0.00351011 -0.00303284 0.00223172 0.0105181 -0.00165324 -0.00499316
internal_weight=0 4389.23 5078.25 3712.68 676.548 2981.75 2096.5
internal_count=32101 14753 17348 12509 2244 10148 7200
is_linear=0
shrinkage=0.00735912


Tree=13
num_leaves=8
num_cat=0
split_feature=98 2 98 98 63 75 98
split_gain=6028.22 724.264 305.26 251.189 68.5693 22.5708 22.0664
threshold=0.39544768956533666 1.6300000000000001 0.84397415953677302 0.2336257309941521 1.5000000000000002 3.5000000000000004 -0.63545751633986913
decision_type=2 2 2 2 2 8 2
left_child=1 6 4 -3 -2 -4 -1
right_child=2 3 5 -5 -6 -7 -8
leaf_value=-0.0078307822928742818 0.0069913030018275363 -0.0031267885156887262 0.0079006178290326173 0.0010258524803514802 0.0044867738507925418 0.010197229024693191 -0.0060866155612923842
leaf_weight=1655.7116270363331 1096.2597852945328 4484.8620189428329 304.15499779582024 955.8640561401844 1318.0802513360977 1309.0075618624687 547.52936014533043
leaf_count=4597 2996 12372 828 2624 3604 3564 1516
internal_value=0 -0.00383916 0.00728575 -0.00239665 0.00562577 0.0097672 -0.00739936
internal_weight=0 7643.97 4027.5 5440.73 2414.34 1613.16 2203.24
internal_count=32101 21109 10992 14996 6600 4392 6113
is_linear=0
shrinkage=0.00735912


Tree=14
num_leaves=8
num_cat=0
split_feature=99 96 99 6 96 44 18
split_gain=5687.26 958.83 560.931 183.234 143.714 107.41 81.2278
threshold=-0.21950331108177404 0.23395383041240833 -0.54967976774677685 1.5000000000000002 0.11876210138593614 3.5000000000000004 inf
decision_type=2 2 2 8 2 10 8
left_child=2 4 6 -3 -2 -4 -1
right_child=1 3 5 -5 -6 -7 -8
leaf_value=0.012855566306810652 -0.0060709116512314507 0.0014813665080982842 0.0082749535679746498 -0.0033961911148066154 -0.0034881529932787592 0.0034809688578065945 0.0094468621321862987
leaf_weight=1056.2135462462902 3291.5396256148815 1938.6711783707142 370.0370280444622 531.05566450953484 1820.659487426281 815.60907796025276 610.97998553514481
leaf_count=3166 10268 5941 1122 1638 5642 2485 1839
internal_value=0 -0.00333291 0.00885635 0.000431117 -0.00515187 0.00498096 0.0116096
internal_weight=0 7581.93 2852.84 2469.73 5112.2 1185.65 1667.19
internal_count=32101 23489 8612 7579 15910 3607 5005
is_linear=0
shrinkage=0.00735912


Tree=15
num_leaves=7
num_cat=0
split_feature=2 2 71 18 75 22
split_gain=546.405 638.364 665.316 70.7079 25.8261 29.4153
threshold=31.500000000000004 1.4700000000000002 1.5000000000000002 1.0000000180025095e-35 3.5000000000000004 13.500000000000002
decision_type=2 2 2 10 8 10
left_child=1 3 -3 -1 -2 -6
right_child=4 2 -4 -5 5 -7
leaf_value=-0.0022498095252306408 -0.0019862315752674151 0.00060495811255875025 0.0068011801472767676 -0.0054554025253400204 -0.0058661368413906127 -0.0028941533769201795
leaf_weight=877.0794922709465 166.6195453107357 5636.8725661039352 1126.1219735741615 655.0402989089489 761.52647638320923 243.39807924628258
leaf_count=2995 575 19075 3749 2242 2628 837
internal_value=0 0.000665328 0.00163734 -0.00362289 -0.00470322 -0.00515013
internal_weight=0 8295.11 6762.99 1532.12 1171.54 1004.92
internal_count=32101 28061 22824 5237 4040 3465
is_linear=0
shrinkage=0.00735912


Tree=16
num_leaves=8
num_cat=0
split_feature=96 97 96 97 94 48 48
split_gain=4463.89 1242.03 902.75 254.008 201.294 103.586 23.3315
threshold=0.14460049202480801 0.45781195147595871 0.56750329461793625 0.14325443272303548 0.37265787647467041 254.50000000000003 186.50000000000003
decision_type=2 2 2 2 2 2 2
left_child=1 3 4 -1 -2 -3 -4
right_child=2 5 6 -5 -6 -7 -8
leaf_value=0.0097491458231108198 -0.00081807622620479669 0.00087730334704703723 -0.0060332206218629602 0.005836739408117954 -0.003979987212097324 -0.0060415922392135085 -0.007800271412331557
leaf_weight=1688.8639801442623 3711.5171013176441 163.93115818500519 568.4225626885891 1938.1680393815041 1546.0508656799793 404.01436305046082 1648.3139974474907
leaf_count=4588 10222 451 1579 5291 4268 1116 4586
internal_value=0 0.006075 -0.00341018 0.00765979 -0.00174858 -0.00403952 -0.00734916
internal_weight=0 4194.98 7474.3 3627.03 5257.57 567.946 2216.74
internal_count=32101 11446 20655 9879 14490 1567 6165
is_linear=0
shrinkage=0.00735912


Tree=17
num_leaves=8
num_cat=0
split_feature=98 98 98 6 44 46 19
split_gain=5582.91 741.996 566.282 238.148 112.514 99.3605 74.8123
threshold=-0.2328282828282828 0.25546518510033034 -0.57359307359307343 1.5000000000000002 3.5000000000000004 inf 9.5000000000000018
decision_type=2 2 2 8 10 8 8
left_child=2 3 6 -2 -4 -3 -1
right_child=1 5 4 -5 -6 -7 -8
leaf_value=0.012629266366404586 0.00049069662476239936 -0.0055925984788547257 0.0081704517290282028 -0.0039381822184153953 0.0032397033146895266 7.1447642014111398e-05 0.0093914089241195278
leaf_weight=1076.3778365850449 2417.012415766716 4065.9902577400208 366.71682757139206 902.59237435460091 804.77252092957497 173.82135424017906 625.71824491024017
leaf_count=3207 7421 12705 1108 2796 2448 542 1874
internal_value=0 -0.00331953 0.0087306 -0.000712748 0.00478701 -0.00535967 0.0114421
internal_weight=0 7559.42 2873.59 3319.6 1171.49 4239.81 1702.1
internal_count=32101 23464 8637 10217 3556 13247 5081
is_linear=0
shrinkage=0.00735912


Tree=18
num_leaves=8
num_cat=0
split_feature=1 96 1 96 1 40 88
split_gain=830.972 1022.97 446.058 332.995 119.91 99.9324 26.2934
threshold=1.5400000000000003 0.28724348403646199 3.0500000000000003 0.64819414072749026 1.1300000000000001 5.5000000000000009 1.0000000180025095e-35
decision_type=2 2 2 2 2 2 2
left_child=4 2 -2 -3 6 -6 -1
right_child=1 3 -4 -5 5 -7 -8
leaf_value=-0.0035389877116926401 0.0031521414149402339 0.00069586146022414404 0.010015767833748376 -0.0036775376897774849 -0.0029729868130709092 0.0016383023265241269 -0.0058370637923587359
leaf_weight=413.36402690410614 1963.6103743612766 2533.5086420178413 695.17835378646851 1500.7494062185287 1202.9563001096249 321.72161614894867 834.77325880527496
leaf_count=1433 6605 8544 2286 5142 4102 1094 2895
internal_value=0 0.00140461 0.00494854 -0.000930391 -0.00338624 -0.00199785 -0.00507917
internal_weight=0 6693.05 2658.79 4034.26 2772.82 1524.68 1248.14
internal_count=32101 22577 8891 13686 9524 5196 4328
is_linear=0
shrinkage=0.00735912


Tree=19
num_leaves=8
num_cat=0
split_feature=2 97 93 7 97 48 48
split_gain=4385.48 1080.96 952.551 413.56 228.166 69.2114 23.1712
threshold=7.2500000000000009 0.49812565199373143 0.60423512230741161 2.5000000000000004 0.14325443272303548 271.50000000000006 186.50000000000003
decision_type=2 2 2 8 2 2 2
left_child=2 4 3 -1 -2 -3 -4
right_child=1 5 6 -5 -6 -7 -8
leaf_value=-0.00056527270292778165 0.0096609671136970963 -0.000329797357244965 -0.0059893334517842458 -0.0055349654096127398 0.0058807006395225356 -0.0064907128827974333 -0.0077667551724726865
leaf_weight=4407.1259677410126 1692.0445221662521 149.54103425145149 555.70169332623482 1142.2235888540745 1785.6053080260754 297.0081921517849 1637.6120351850986
leaf_count=12141 4588 412 1547 3155 4868 822 4568
internal_value=0 0.00633701 -0.0032125 -0.00158891 0.00772134 -0.00443556 -0.00731844
internal_weight=0 3924.2 7742.66 5549.35 3477.65 446.549 2193.31
internal_count=32101 10690 21411 15296 9456 1234 6115
is_linear=0
shrinkage=0.00735912


Tree=20
num_leaves=8
num_cat=0
split_feature=99 96 99 96 28 71 96
split_gain=5495.78 939.678 529.575 141.387 140.223 87.9014 67.8793
threshold=-0.21950331108177404 0.23395383041240833 -0.56339607133035241 0.11876210138593614 2.5000000000000004 1.0000000180025095e-35 0.8988554178369762
decision_type=2 2 2 2 10 2 2
left_child=2 3 6 -2 -3 -4 -1
right_child=1 4 5 -5 -6 -7 -8
leaf_value=0.010310875068834987 -0.006023228310813299 -0.00047072701263914678 0.0061338161798340264 -0.0034553360055019715 0.0038538555555669607 0.0015754476480432373 0.013520836158004612
leaf_weight=1095.6460040509701 3268.1500480175018 1959.1821598410606 924.54561975598335 1814.4179014861584 511.76788425445557 307.41648602485657 549.81835889816284
leaf_count=3254 10268 6010 2795 5642 1569 934 1629
internal_value=0 -0.00329752 0.00865371 -0.00510731 0.000423957 0.00499931 0.0113869
internal_weight=0 7553.52 2877.43 5082.57 2470.95 1231.96 1645.46
internal_count=32101 23489 8612 15910 7579 3729 4883
is_linear=0
shrinkage=0.00735912


Tree=21
num_leaves=7
num_cat=0
split_feature=6 102 19 2 19 40
split_gain=1416.45 534.844 528.759 262.642 316.833 33.9826
threshold=inf 1.0000000180025095e-35 1.0000000180025095e-35 31.500000000000004 1.0000000180025095e-35 7.5000000000000009
decision_type=8 2 10 2 8 2
left_child=3 2 -2 4 -1 -5
right_child=1 -3 -4 5 -6 -7
leaf_value=-0.0033669534216613124 0.0048063131386051451 -0.0040565777101640513 0.014731778305243297 -0.0054308396131430179 0.0002272979961208712 -0.002379567985941715
leaf_weight=1786.5112284719944 779.11631733179092 214.19989544153214 465.12634274363518 778.07399898767471 5170.5610918998718 271.1992883682251
leaf_count=6074 2594 738 1526 2705 17523 941
internal_value=0 0.00667132 0.00852101 -0.00121352 -0.000695303 -0.00464577
internal_weight=0 1458.44 1244.24 8006.35 6957.07 1049.27
internal_count=32101 4858 4120 27243 23597 3646
is_linear=0
shrinkage=0.00735912


Tree=22
num_leaves=8
num_cat=0
split_feature=2 2 2 71 7 48 89
split_gain=4313.74 941.09 418.191 538.66 410.449 23.0515 21.7546
threshold=7.2500000000000009 1.6300000000000001 31.500000000000004 1.0000000180025095e-35 2.5000000000000004 186.50000000000003 2.5000000000000004
decision_type=2 2 2 2 8 2 2
left_child=1 5 3 -2 -3 -1 -4
right_child=2 4 6 -5 -6 -7 -8
leaf_value=-0.005950863688245797 0.007023202815945412 -0.00055804367143530605 0.0097254566884285732 -0.0001562567593961231 -0.0055104378348304122 -0.0077264246444349542 0.0071350328116397957
leaf_weight=553.86175793409348 1546.2162259221077 4405.8694329857826 1273.0559683740139 891.32318010926247 1141.4772771000862 1633.2996073067188 218.82915851473808
leaf_count=1545 4203 12141 3447 2447 3157 4568 593
internal_value=0 -0.0031905 0.00627808 0.00439687 -0.00157782 -0.00727882 0.00934861
internal_weight=0 7734.51 3929.42 2437.54 5547.35 2187.16 1491.89
internal_count=32101 21411 10690 6650 15298 6113 4040
is_linear=0
shrinkage=0.00735912


Tree=23
num_leaves=8
num_cat=0
split_feature=2 2 2 2 2 19 2
split_gain=5351.78 1031.44 455.501 113.326 88.8861 84.8425 32.4787
threshold=2.8100000000000005 1.4700000000000002 7.2500000000000009 3.7750000000000004 1.7600000000000002 9.5000000000000018 18.000000000000004
decision_type=2 2 2 2 2 8 2
left_child=1 5 3 -2 -3 -1 -4
right_child=2 4 6 -5 -6 -7 -8
leaf_value=0.012210459420517886 -0.00040764158764951763 0.0060328411987597072 -0.0051482238167135071 -0.003244777698287008 0.0025098144585642096 0.0088459291105850504 -0.0066123373148275887
leaf_weight=1114.5155327916145 1317.9475457966328 513.39361590147018 1544.3278059363365 1817.9401859641075 1615.1960770189762 658.61775195598602 1846.5792901813984
leaf_count=3284 4044 1546 4859 5656 4928 1953 5831
internal_value=0 0.00681748 -0.0040768 -0.00205348 0.00336149 0.0109637 -0.0059468
internal_weight=0 3901.72 6526.79 3135.89 2128.59 1773.13 3390.91
internal_count=32101 11711 20390 9700 6474 5237 10690
is_linear=0
shrinkage=0.00735912


Tree=24
num_leaves=7
num_cat=0
split_feature=7 33 2 2 79 40
split_gain=1393.83 576.332 387.446 259.661 306.861 33.8935
threshold=inf 1.0000000180025095e-35 1.8150000000000002 31.500000000000004 317.50000000000006 7.5000000000000009
decision_type=8 2 2 2 2 2
left_child=3 2 -2 4 -1 -5
right_child=1 -3 -4 5 -6 -7
leaf_value=-0.0012110018022274019 -0.0030483029272036885 -0.0041911023256384385 0.010032920735404079 -0.0054118429586948475 0.0039102956237627813 -0.002360247675915127
leaf_weight=6249.591411203146 137.50872227549553 225.99389204382896 1100.4210578799248 774.94128754734993 704.70887464284897 270.52831214666367
leaf_count=21232 466 779 3613 2705 2365 941
internal_value=0 0.00660358 0.0085771 -0.00120615 -0.000691494 -0.00462578
internal_weight=0 1463.92 1237.93 7999.77 6954.3 1045.47
internal_count=32101 4858 4079 27243 23597 3646
is_linear=0
shrinkage=0.00735912


Tree=25
num_leaves=8
num_cat=0
split_feature=93 94 93 94 94 94 93
split_gain=4244.42 1144.64 890.599 225.854 215.332 62.6316 17.5733
threshold=0.14835164835164838 0.49390243902439029 0.60423512230741161 0.14835164835164838 0.2817460317460318 0.64526872320053297 0.74358690844758957
decision_type=2 2 2 2 2 2 2
left_child=1 3 4 -1 -2 -3 -4
right_child=2 5 6 -5 -6 -7 -8
leaf_value=0.0095009093738204747 0.0014195564128122488 -0.00030653310450196524 -0.0060941163865169956 0.0057834353587788608 -0.0023640633057084104 -0.00579597984988269 -0.0076388371045141637
leaf_weight=1671.0674772560596 999.45380425453186 165.02517884969711 571.93915930390358 1900.4290436804295 4380.5430590808392 362.41864141821861 1609.7568284571171
leaf_count=4515 2745 454 1597 5168 12100 1004 4518
internal_value=0 0.00602939 -0.00326973 0.00752412 -0.00166057 -0.0040851 -0.00723592
internal_weight=0 4098.94 7561.69 3571.5 5380 527.444 2181.7
internal_count=32101 11141 20960 9683 14845 1458 6115
is_linear=0
shrinkage=0.00735912


Tree=26
num_leaves=8
num_cat=0
split_feature=99 2 98 2 60 74 3
split_gain=5319.81 915.744 515.271 157.008 95.2837 94.4563 74.8477
threshold=-0.21950331108177404 3.7750000000000004 -0.57359307359307343 7.2500000000000009 5.5000000000000009 10.500000000000002 12.500000000000002
decision_type=2 2 2 2 2 8 2
left_child=2 5 6 -3 -4 -2 -1
right_child=1 3 4 -5 -6 -7 -8
leaf_value=0.0099825937176952935 0.0010817132549690871 -0.0032342998705629602 0.0055720668043797343 -0.0059229623051543917 -0.00029832283223446625 -0.0036968612403289673 0.013333418559263576
leaf_weight=1194.6542398333549 2080.9361169338226 1815.9788143932819 995.74748575687408 3378.4606518745422 175.05005806684494 250.64464873075485 534.35641506314278
leaf_count=3515 6374 5656 3001 10690 530 769 1566
internal_value=0 -0.00326393 0.00846745 -0.00498377 0.00469184 0.000566409 0.0110214
internal_weight=0 7526.02 2899.81 5194.44 1170.8 2331.58 1729.01
internal_count=32101 23489 8612 16346 3531 7143 5081
is_linear=0
shrinkage=0.00735912


Tree=27
num_leaves=8
num_cat=0
split_feature=94 7 94 16 94 32 88
split_gain=1761.78 1136.89 409.235 329.338 244.088 54.7769 23.5066
threshold=0.2817460317460318 inf 0.62903034379079803 1.5000000000000002 0.14835164835164838 1.0000000180025095e-35 1.0000000180025095e-35
decision_type=2 8 2 2 2 2 2
left_child=4 2 -2 -3 6 -6 -1
right_child=1 3 -4 -5 5 -7 -8
leaf_value=-0.0038727079966484157 0.00045519053848735655 0.0059198508981571146 0.0091959581590653778 0.014125607471661738 -0.0007855487080374381 -0.0028208381033657083 -0.0055223189450464777
leaf_weight=760.90516206622124 3040.6446661055088 533.07017081975937 320.60031598806381 530.97155329585075 1753.1346759796143 1217.6786905527115 1305.3941407799721
leaf_count=2648 10238 1752 1045 1718 5985 4163 4552
internal_value=0 0.0033903 0.00129034 0.0100195 -0.00297372 -0.00162095 -0.0049168
internal_weight=0 4425.29 3361.24 1064.04 5037.11 2970.81 2066.3
internal_count=32101 14753 11283 3470 17348 10148 7200
is_linear=0
shrinkage=0.00735912


Tree=28
num_leaves=8
num_cat=0
split_feature=95 6 97 95 93 32 97
split_gain=5705.06 664.137 506.67 260.873 166.307 74.9983 60.9522
threshold=0.48997310931351173 1.0000000180025095e-35 0.19799097813711505 0.26320563051354784 0.60423512230741161 1.0000000180025095e-35 0.14325443272303548
decision_type=2 8 2 2 2 2 2
left_child=1 4 6 -3 -1 -4 -2
right_child=2 3 5 -5 -6 -7 -8
leaf_value=-0.00021963691488173701 0.009398727320760393 -0.0067886179059696173 0.0028739589789262936 -0.0030913227088161768 -0.007763287891187058 0.0063414194002402134 0.0069771332689447674
leaf_weight=2059.3625813424587 1700.7317579388618 3369.3323379456997 1557.1368494331837 1496.8672394752502 171.34033143520355 434.60131415724754 867.43393912911415
leaf_count=5687 4588 9424 4248 4137 480 1185 2352
internal_value=0 -0.00412786 0.00642148 -0.00565213 -0.000801121 0.0036327 0.00858264
internal_weight=0 7096.9 4559.9 4866.2 2230.7 1991.74 2568.17
internal_count=32101 19728 12373 13561 6167 5433 6940
is_linear=0
shrinkage=0.00735912


Tree=29
num_leaves=8
num_cat=0
split_feature=98 2 98 2 44 80 3
split_gain=5229.48 903.43 509.178 155.357 109.411 88.1897 73.2152
threshold=-0.2328282828282828 3.7750000000000004 -0.57359307359307343 7.2500000000000009 3.5000000000000004 79.500000000000014 12.500000000000002
decision_type=2 2 2 2 10 2 2
left_child=2 5 6 -3 -4 -2 -1
right_child=1 3 4 -5 -6 -7 -8
leaf_value=0.0098675511921382502 -0.0013230457328349094 -0.0032219061517874395 0.0079426534007863165 -0.005899282562342064 0.0031031504367137605 0.0016500171544116355 0.013173521469619767
leaf_weight=1199.923657566309 852.4491340816021 1813.646999925375 370.4119274020195 3365.9400780200958 811.09108820557594 1472.0705178678036 537.22942659258842
leaf_count=3515 2612 5656 1108 10690 2448 4506 1566
internal_value=0 -0.00325197 0.00835698 -0.00496255 0.00462413 0.000558387 0.0108932
internal_weight=0 7504.11 2918.66 5179.59 1181.5 2324.52 1737.15
internal_count=32101 23464 8637 16346 3556 7118 5081
is_linear=0
shrinkage=0.00735912


Tree=30
num_leaves=8
num_cat=0
split_feature=6 104 95 19 19 18 19
split_gain=1353.56 907.458 341.973 336.917 315.513 50.3784 25.8466
threshold=inf 1.0000000180025095e-35 0.82544758900668846 1.0000000180025095e-35 1.0000000180025095e-35 1.0000000180025095e-35 1.5000000000000002
decision_type=8 2 2 10 8 8 8
left_child=2 6 4 -3 -1 -4 -2
right_child=1 3 5 -5 -6 -7 -8
leaf_value=-0.0032808743415958753 -0.0019974249609590686 0.0061747658321469169 -0.002246266451680174 0.01424886374344231 0.00034739403972533256 -0.005840146799636169 -0.0064321524176992745
leaf_weight=1738.6926865875721 118.04571464657784 693.23834201693535 286.02322891354561 472.43358591198921 5114.7986294031143 847.59267130494118 189.85192549228668
leaf_count=5923 408 2273 1005 1522 17331 2984 655
internal_value=0 0.00648314 -0.00119258 0.00945172 -0.0005727 -0.00493667 -0.00474443
internal_weight=0 1473.57 7987.11 1165.67 6853.49 1133.62 307.898
internal_count=32101 4858 27243 3795 23254 3989 1063
is_linear=0
shrinkage=0.00735912


Tree=31
num_leaves=8
num_cat=0
split_feature=92 92 94 92 11 41 94
split_gain=5590.58 651.173 494.526 158.245 98.5777 63.5359 53.2739
threshold=0.51956815114709864 0.27402402402402409 0.20526315789473687 0.12916666666666668 43.500000000000007 4.5000000000000009 0.14835164835164838
decision_type=2 2 2 2 2 2 2
left_child=1 3 6 -1 -4 -3 -2
right_child=2 5 4 -5 -6 -7 -8
leaf_value=-0.007400711484253625 0.00932773938976552 -0.00093312996937004364 0.0067828275734437282 -0.0044499296122806654 0.0028886389462158845 -0.0033456362881249548 0.0069813716604929087
leaf_weight=2179.1360160410404 1676.3038922548294 2287.3446646332741 449.35927468538284 1811.9563679397106 1659.4745059013367 800.19700536131859 788.67731714248657
leaf_count=6137 4515 6320 1222 5038 4524 2210 2135
internal_value=0 -0.00409875 0.0063398 -0.00606213 0.00372048 -0.00155956 0.00857892
internal_weight=0 7078.63 4573.81 3991.09 2108.83 3087.54 2464.98
internal_count=32101 19705 12396 11175 5746 8530 6650
is_linear=0
shrinkage=0.00735912


Tree=32
num_leaves=8
num_cat=0
split_feature=98 98 98 6 23 46 94
split_gain=5140.52 704.698 496.801 231.922 107.689 99.3835 71.4735
threshold=-0.2328282828282828 0.25546518510033034 -0.57359307359307343 1.5000000000000002 4.5000000000000009 inf 0.080128205128205135
decision_type=2 2 2 8 10 8 2
left_child=2 3 6 -2 -4 -3 -1
right_child=1 5 4 -5 -6 -7 -8
leaf_value=0.013006807336998374 0.00048433758268597179 -0.0054819192286556292 0.0065995562782354359 -0.0038939800002582596 0.0021299802462197487 0.00021585410003939013 0.0097485821320002653
leaf_weight=540.20816147327423 2417.894491314888 4001.5098599493504 647.79019007086754 898.10480713844299 536.52394104003906 171.85411304235458 1205.3444217145443
leaf_count=1566 7421 12705 1939 2796 1617 542 3515
internal_value=0 -0.00323433 0.00826277 -0.000700727 0.00457806 -0.00524655 0.0107601
internal_weight=0 7489.36 2929.87 3316 1184.31 4173.36 1745.55
internal_count=32101 23464 8637 10217 3556 13247 5081
is_linear=0
shrinkage=0.00735912


Tree=33
num_leaves=8
num_cat=0
split_feature=97 97 3 18 36 3 8
split_gain=1743.06 633.456 263.331 165.829 85.9575 57.8805 28.5967
threshold=0.26919795902096794 0.54142607305919255 6.7500000000000009 1.0000000180025095e-35 1.0000000180025095e-35 1.3800000000000001 102.50000000000001
decision_type=2 2 2 8 2 2 2
left_child=2 3 4 -2 -1 -3 -4
right_child=1 5 6 -5 -6 -7 -8
leaf_value=-0.001076477273120668 0.0046197513343950482 0.012509818772448439 -0.0050970079565573062 0.0011904255530632336 -0.0049321693708132769 0.008119423527807099 -0.0013217068063815765
leaf_weight=2845.9598231315613 1120.3841860592365 296.65371757745743 1934.7415905296803 2409.9528523087502 352.46212956309319 381.18166333436966 117.68105974793434
leaf_count=9727 3739 945 6789 8048 1206 1236 411
internal_value=0 0.00353238 -0.00282435 0.00227984 -0.00150263 0.0100487 -0.0048822
internal_weight=0 4208.17 5250.84 3530.34 3198.42 677.835 2052.42
internal_count=32101 13968 18133 11787 10933 2181 7200
is_linear=0
shrinkage=0.00735912


Tree=34
num_leaves=8
num_cat=0
split_feature=92 92 97 7 92 64 97
split_gain=5504.48 642.674 500.434 225.107 156.476 84.6293 58.5097
threshold=0.51956815114709864 0.27402402402402409 0.19799097813711505 1.0000000180025095e-35 0.12916666666666668 1.5000000000000002 0.14325443272303548
decision_type=2 2 2 10 2 2 2
left_child=1 4 6 -3 -1 -4 -2
right_child=2 3 5 -5 -6 -7 -8
leaf_value=-0.0073607825549798379 0.0092289637300067857 -0.0028592167924827022 0.0025039395436744416 0.0014673356449118923 -0.0044234491875052148 0.0057820550304479692 0.0068590686455415398
leaf_weight=2172.7108030021191 1705.6784122288227 2154.2650506198406 1382.3868030309677 932.22295254468918 1809.483764231205 621.29833388328552 869.62660476565361
leaf_count=6137 4588 5962 3767 2568 5038 1689 2352
internal_value=0 -0.00407341 0.00628377 -0.00155144 -0.00602715 0.00352245 0.00843052
internal_weight=0 7068.68 4578.99 3086.49 3982.19 2003.69 2575.31
internal_count=32101 19705 12396 8530 11175 5456 6940
is_linear=0
shrinkage=0.00735912


Tree=35
num_leaves=8
num_cat=0
split_feature=99 96 97 6 96 19 73
split_gain=5062.67 894.442 500.762 175.611 135.493 114.051 55.975
threshold=-0.21950331108177404 0.23395383041240833 0.24923050095684895 1.5000000000000002 0.11876210138593614 9.5000000000000018 1.5000000000000002
decision_type=2 2 2 8 2 8 10
left_child=2 4 5 -3 -2 -1 -4
right_child=1 3 6 -5 -6 -7 -8
leaf_value=0.011830975322063153 -0.0059087199590476857 0.0014294279590995073 0.0062935322255518126 -0.0033522716899976675 -0.0033801356553415413 0.0080651191252061518 0.0027422070161677412
leaf_weight=1196.2948911488056 3209.4876437187195 1945.2843295037746 387.35920348763466 528.67753213644028 1799.9094631969929 699.92716524004936 648.57093784213066
leaf_count=3465 10268 5941 1160 1638 5642 2041 1946
internal_value=0 -0.00321303 0.00819476 0.000406151 -0.00500098 0.0104436 0.00407411
internal_weight=0 7483.36 2932.15 2473.96 5009.4 1896.22 1035.93
internal_count=32101 23489 8612 7579 15910 5506 3106
is_linear=0
shrinkage=0.00735912


Tree=36
num_leaves=8
num_cat=0
split_feature=6 99 1 79 99 30 88
split_gain=1323.08 579.131 326.386 316.512 307.229 32.0942 29.8368
threshold=inf 0.47901675640316016 1.1300000000000001 319.50000000000006 -0.2453960004519263 5.5000000000000009 1.0000000180025095e-35
decision_type=8 2 2 2 2 8 2
left_child=2 4 6 -4 -2 -3 -1
right_child=1 5 3 -5 -6 -7 -8
leaf_value=-0.0031846380636575164 0.00027292477800361701 -0.00125961824890226 -0.0011195183207890684 0.0040669396922355452 0.010123379264661756 -0.006569061364387202 -0.005755453396771703
leaf_weight=378.91430681943893 206.7761415541172 131.7763446867466 6154.9778710007668 710.45498645305634 1023.321951597929 118.8359203338623 732.08158075809479
leaf_count=1342 694 455 20929 2372 3294 415 2600
internal_value=0 0.00639247 -0.00118167 -0.000582252 0.00847038 -0.00379293 -0.00488219
internal_weight=0 1480.71 7976.43 6865.43 1230.1 250.612 1111
internal_count=32101 4858 27243 23301 3988 870 3942
is_linear=0
shrinkage=0.00735912


Tree=37
num_leaves=8
num_cat=0
split_feature=1 1 1 7 1 38 1
split_gain=5418.24 635.23 412.18 222.972 155.372 117.681 87.5596
threshold=1.925 3.6500000000000008 1.3450000000000004 1.0000000180025095e-35 7.7500000000000009 1.5000000000000002 1.1300000000000001
decision_type=2 2 2 10 2 8 2
left_child=2 3 6 -2 -3 -4 -1
right_child=1 4 5 -5 -6 -7 -8
leaf_value=0.0091113103776564817 -0.0028431252107543954 -0.004394351714230635 0.0054295814771565176 0.0014631058640799637 -0.0073243652096149541 0.0016354020891366004 0.0064637199117822943
leaf_weight=1611.1774200201035 2152.7466791272163 1806.7461278736591 852.54438298940659 932.35170313715935 2166.6994432806969 927.67741841077805 1192.5345123410225
leaf_count=4328 5962 5038 2320 2568 6137 2526 3222
internal_value=0 -0.00404766 0.0062276 -0.00154072 -0.00599315 0.00345458 0.00798685
internal_weight=0 7058.54 4583.93 3085.1 3973.45 1780.22 2803.71
internal_count=32101 19705 12396 8530 11175 4846 7550
is_linear=0
shrinkage=0.00735912


Tree=38
num_leaves=8
num_cat=0
split_feature=1 97 1 97 1 79 94
split_gain=3815.68 1488.62 617.24 277.692 145.195 130.6 72.8394
threshold=3.5500000000000003 0.27428575409135664 1.925 0.57389809672731928 12.500000000000002 281.50000000000006 0.20526315789473687
decision_type=2 2 2 2 2 2 2
left_child=2 4 6 -3 -2 -4 -1
right_child=1 3 5 -5 -6 -7 -8
leaf_value=-0.0062561358724707713 0.0071435961595632813 0.0023379204170264514 -0.00010979737500916149 -0.0043339314739853085 0.010961771004160183 -0.005210324371300013 -0.0042243311088632678
leaf_weight=2063.3547286391258 874.9288264811039 1066.0421014130116 2350.7008495032787 494.2751901447773 1442.4303968846798 307.43394753336906 1812.1345590949059
leaf_count=6650 2574 3232 7223 1553 4157 966 5746
internal_value=0 0.00578108 -0.00343384 0.000222147 0.00952231 -0.000701236 -0.00530716
internal_weight=0 3877.68 6533.62 1560.32 2317.36 2658.13 3875.49
internal_count=32101 11516 20585 4785 6731 8189 12396
is_linear=0
shrinkage=0.00735912


Tree=39
num_leaves=8
num_cat=0
split_feature=97 97 97 2 97 46 46
split_gain=1699.98 619.588 249.849 99.2774 54.0439 51.6077 29.5596
threshold=0.26831564110438794 0.54142607305919255 0.14325443272303548 3.2750000000000004 0.65564950344199346 1.0000000180025095e-35 2.5000000000000004
decision_type=2 2 2 2 2 8 10
left_child=2 3 6 -2 -3 -4 -1
right_child=1 4 5 -5 -6 -7 -8
leaf_value=-0.0051234826516760694 0.0010970268042249896 0.0077026915775813025 -0.0024911993555224851 0.0035508530554853842 0.011895697366289528 -0.00058333609260696967 -0.0022260133186788136
leaf_weight=1854.7148415744305 1983.7151411771774 335.89246201515198 1503.6186517477036 1631.568342000246 348.22479328513145 1580.0123938322067 217.45213147997856
leaf_count=6548 6634 1082 5150 5410 1099 5412 766
internal_value=0 0.00342208 -0.00284437 0.00220543 0.00984448 -0.00151474 -0.00482117
internal_weight=0 4299.4 5155.8 3615.28 684.117 3083.63 2072.17
internal_count=32101 14225 17876 12044 2181 10562 7314
is_linear=0
shrinkage=0.00735912


Tree=40
num_leaves=8
num_cat=0
split_feature=95 1 94 95 10 94 42
split_gain=5359 624.478 461.825 154.909 93.9569 50.3138 42.1856
threshold=0.48997310931351173 3.6500000000000008 0.20526315789473687 0.12524838460008939 56.500000000000007 0.14835164835164838 5.5000000000000009
decision_type=2 2 2 2 2 2 10
left_child=1 6 5 -3 -4 -2 -1
right_child=2 3 4 -5 -6 -7 -8
leaf_value=-0.001872548484931311 0.0090794874233839189 -0.0072542953198082459 0.0028479983753576582 -0.0043170069498066838 0.006654562728686743 0.0068027587777802377 0.00070953867183709313
leaf_weight=2701.7697740495205 1682.7701810002327 2215.2963797450066 1657.7248094677925 1749.1038562059402 448.1490957736969 791.50445395708084 390.45377600193024
leaf_count=7474 4515 6292 4508 4883 1215 2135 1079
internal_value=0 -0.00402577 0.00619626 -0.00595943 0.00366011 0.00835306 -0.00154549
internal_weight=0 7056.62 4580.15 3964.4 2105.87 2474.27 3092.22
internal_count=32101 19728 12373 11175 5723 6650 8553
is_linear=0
shrinkage=0.00735912


Tree=41
num_leaves=8
num_cat=0
split_feature=1 7 95 1 7 95 95
split_gain=3755.11 1006.04 615.593 541.766 241.578 179.456 70.4535
threshold=3.5500000000000003 1.0000000180025095e-35 0.48997310931351173 20.000000000000004 1.0000000180025095e-35 0.078001354786271557 0.68644517788196979
decision_type=2 8 2 2 8 2 2
left_child=2 5 4 -3 -1 -2 -4
right_child=1 3 6 -5 -6 -7 -8
leaf_value=0.001581142375974232 0.011188981347345677 -0.00087983572731885947 -0.0039955707944639759 0.0088768813223880135 -0.002850916210517898 0.0069638445398744675 -0.0060642411695649382
leaf_weight=1296.0189285576344 1061.3889159858227 1286.6670270860195 1433.9177542924881 404.9222095310688 1368.8462406098843 1134.5286186933517 2420.6461487114429
leaf_count=3956 3048 3930 4547 1172 4256 3366 7826
internal_value=0 0.00572251 -0.00341544 0.00145465 -0.000694336 0.00900832 -0.00529574
internal_weight=0 3887.51 6519.43 1691.59 2664.87 2195.92 3854.56
internal_count=32101 11516 20585 5102 8212 6414 12373
is_linear=0
shrinkage=0.00735912


Tree=42
num_leaves=8
num_cat=0
split_feature=3 6 79 3 48 63 28
split_gain=1653.11 1231.09 336.44 234.645 184.465 72.1666 71.6243
threshold=3.5500000000000003 1.5000000000000002 303.50000000000006 6.7500000000000009 226.50000000000003 2.5000000000000004 6.5000000000000009
decision_type=2 8 2 2 2 2 10
left_child=1 2 -1 5 -3 -2 -5
right_child=3 4 -4 6 -6 -7 -8
leaf_value=-5.952929100727985e-05 -0.0023343530345182645 0.0069932890421393612 0.0069724166921191584 -0.0053200523117295203 0.012745038267417351 0.00016957196962771344 -0.00090579960737393586
leaf_weight=2802.2701024115086 2068.0261198878288 699.96446865797043 423.90994328260422 1806.0196914076805 538.03514018654823 889.09484106302261 225.76344427466393
leaf_count=9402 7102 2268 1381 6409 1702 3046 791
internal_value=0 0.00325909 0.000863883 -0.00290516 0.00949722 -0.00158052 -0.00483122
internal_weight=0 4464.18 3226.18 4988.9 1238 2957.12 2031.78
internal_count=32101 14753 10783 17348 3970 10148 7200
is_linear=0
shrinkage=0.00735912


Tree=43
num_leaves=8
num_cat=0
split_feature=1 1 1 1 1 64 91
split_gain=5250.69 620.435 398.278 152.582 84.4108 74.8216 70.6286
threshold=1.925 3.6500000000000008 1.3450000000000004 7.7500000000000009 1.1300000000000001 3.5000000000000004 1.0000000180025095e-35
decision_type=2 2 2 2 2 2 8
left_child=2 5 4 -3 -1 -2 -4
right_child=1 3 6 -5 -6 -7 -8
leaf_value=0.0089477227237257061 -0.0018189448402159457 -0.0043406329050087178 0.0039475396115667234 -0.0072504529293732373 0.0063507929452767224 0.0028862651989196276 -0.00046782486923518474
leaf_weight=1614.842011064291 2887.6829373538494 1801.5572772920132 1560.0061951875687 2153.9045705199242 1195.1211707293987 194.74745485186577 222.97061404585838
leaf_count=4328 7992 5038 4240 6137 3222 538 606
internal_value=0 -0.00399716 0.00611781 -0.00592622 0.00784486 -0.00152049 0.00339366
internal_weight=0 7037.89 4592.94 3955.46 2809.96 3082.43 1782.98
internal_count=32101 19705 12396 11175 7550 8530 4846
is_linear=0
shrinkage=0.00735912


Tree=44
num_leaves=8
num_cat=0
split_feature=96 98 96 7 7 19 96
split_gain=4832.98 921.651 417.919 240.732 145.837 67.7864 32.7708
threshold=0.32899274471727608 -0.57359307359307343 0.13343768498571776 1.0000000180025095e-35 1.0000000180025095e-35 9.5000000000000018 0.050000000000000003
decision_type=2 2 2 8 8 8 2
left_child=2 5 6 -3 -4 -2 -1
right_child=1 3 4 -5 -6 -7 -8
leaf_value=-0.0064605177737994679 0.011392492345553932 0.0051451890727407029 -7.5814611070826457e-05 0.00021086308286060807 -0.0033490550813659427 0.0083745249244425758 -0.0049803554733628668
leaf_weight=1795.8857962191105 1123.3813039958477 1348.0108038783073 1251.4696515202522 890.4919458925724 1800.4473752379417 651.45702213048935 1541.1911387145519
leaf_count=5831 3207 4036 3869 2700 5629 1874 4955
internal_value=0 0.00632652 -0.00397782 0.00318386 -0.00200794 0.0102876 -0.0057782
internal_weight=0 4013.34 6388.99 2238.5 3051.92 1774.84 3337.08
internal_count=32101 11817 20284 6736 9498 5081 10786
is_linear=0
shrinkage=0.00735912


Tree=45
num_leaves=8
num_cat=0
split_feature=1 2 1 98 1 63 73
split_gain=744.009 924.059 366.717 292.234 110.264 164.183 33.4352
threshold=1.5400000000000003 3.2250000000000005 3.0500000000000003 -0.5579975579975579 1.1300000000000001 2.5000000000000004 2.5000000000000004
decision_type=2 2 2 2 2 2 10
left_child=4 3 -3 -2 6 -6 -1
right_child=1 2 -4 -5 5 -7 -8
leaf_value=-0.0027866753361614478 -0.0035281448618135272 0.0029572488036331657 0.0090098169813204905 0.00059385500418198821 -0.0037668876514028548 0.0012623664132205034 -0.005626688178272274
leaf_weight=306.88195377588272 1497.114262253046 2035.7323281764984 740.32326412200928 2462.1950978040695 955.01395678520203 554.94469329714775 898.3687601685524
leaf_count=1100 5200 6768 2347 8262 3296 1900 3228
internal_value=0 0.0013177 0.00457303 -0.000964102 -0.00324527 -0.00191656 -0.00490673
internal_weight=0 6735.36 2776.06 3959.31 2715.21 1509.96 1205.25
internal_count=32101 22577 9115 13462 9524 5196 4328
is_linear=0
shrinkage=0.00735912


Tree=46
num_leaves=8
num_cat=0
split_feature=92 92 92 7 92 38 92
split_gain=5169.74 613.719 390.98 218.199 151.212 115.668 82.8586
threshold=0.51956815114709864 0.27402402402402409 0.74358690844758957 1.0000000180025095e-35 0.12916666666666668 1.5000000000000002 0.88502506265664171
decision_type=2 2 2 10 2 8 2
left_child=1 4 5 -3 -1 -2 -4
right_child=2 3 6 -5 -6 -7 -8
leaf_value=-0.0072149592984642264 0.0053213720216696604 -0.0028001063249810379 0.0062951527949130269 0.0014609220494509253 -0.0043151223318579268 0.0015641068803680079 0.0088669435499708002
leaf_weight=2147.4648987054825 854.74664679169655 2148.561694175005 1196.328023314476 932.41852095723152 1799.0209882855415 929.43640440702438 1616.4306973516941
leaf_count=6137 2320 5962 3222 2568 5038 2526 4328
internal_value=0 -0.00397239 0.0060646 -0.00150955 -0.00589414 0.00336624 0.00777475
internal_weight=0 7027.47 4596.94 3080.98 3946.49 1784.18 2812.76
internal_count=32101 19705 12396 8530 11175 4846 7550
is_linear=0
shrinkage=0.00735912


Tree=47
num_leaves=8
num_cat=0
split_feature=96 96 96 7 7 94 96
split_gain=4758.37 873.467 414.395 241.466 144.262 73.1837 32.6015
threshold=0.32899274471727608 0.64819414072749026 0.13343768498571776 1.0000000180025095e-35 1.0000000180025095e-35 0.080128205128205135 0.050000000000000003
decision_type=2 2 2 8 8 2 2
left_child=2 3 6 -2 -4 -3 -1
right_child=1 5 4 -5 -6 -7 -8
leaf_value=-0.0064381838206151384 0.0051704952262220999 0.012319965490465776 -7.6157819730013817e-05 0.00022280963601593179 -0.0033328488043582981 0.0090703090519581274 -0.00495910365435591
leaf_weight=1788.0187847316265 1322.7234797775745 552.20023047924042 1251.4705816805363 898.28987383842468 1797.3125500380993 1250.7793767750263 1536.4048530459404
leaf_count=5831 3953 1566 3869 2722 5629 3576 4955
internal_value=0 0.00626265 -0.00395841 0.003171 -0.00199714 0.0100686 -0.0057559
internal_weight=0 4023.99 6373.21 2221.01 3048.78 1802.98 3324.42
internal_count=32101 11817 20284 6675 9498 5142 10786
is_linear=0
shrinkage=0.00735912


Tree=48
num_leaves=8
num_cat=0
split_feature=97 97 97 81 63 34 46
split_gain=1629.62 585.662 243.968 135.158 74.7654 52.4168 29.6584
threshold=0.26831564110438794 0.54142607305919255 0.14325443272303548 81.500000000000014 2.5000000000000004 21.500000000000004 2.5000000000000004
decision_type=2 2 2 2 2 8 10
left_child=2 3 6 -2 -4 -3 -1
right_child=1 5 4 -5 -6 -7 -8
leaf_value=-0.0050717624519401464 0.00067650393154390339 0.0076399538330971196 -0.0022353120462561024 0.0035206975316297356 0.00027063454961499426 0.01175390771071584 -0.002156413057241258
leaf_weight=1834.4782925844193 1752.1591812074184 376.42626884579659 2157.4328387975693 1878.2140519917011 916.54887199401855 317.44533532857895 215.47806793451309
leaf_count=6548 5808 1188 7421 6236 3141 993 766
internal_value=0 0.00333435 -0.00280011 0.00214895 -0.00148716 0.0095295 -0.00476708
internal_weight=0 4324.24 5123.94 3630.37 3073.98 693.872 2049.96
internal_count=32101 14225 17876 12044 10562 2181 7314
is_linear=0
shrinkage=0.00735912


Tree=49
num_leaves=8
num_cat=0
split_feature=95 95 97 95 32 97 95
split_gain=5115.99 605.514 451.396 153.603 73.0813 53.1003 10.0918
threshold=0.48997310931351173 0.12932979429329797 0.19799097813711505 0.26320563051354784 1.0000000180025095e-35 0.14325443272303548 0.044351879018701641
decision_type=2 2 2 2 2 2 2
left_child=1 6 5 -3 -4 -2 -1
right_child=2 3 4 -5 -6 -7 -8
leaf_value=-0.0076337849597988509 0.0088257602745652215 -0.0041687127860362896 0.0026631393377530618 -0.0014452809443461685 0.0060752574238736694 0.0065730990003497669 -0.0065979164839442559
leaf_weight=1102.5533153712749 1714.898177832365 1803.0212485194206 1565.6068239510059 2982.2340797185898 437.29973629117012 874.30086544156075 1137.7747945487499
leaf_count=3172 4588 5052 4248 8259 1185 2352 3245
internal_value=0 -0.00395165 0.00603673 -0.00247222 0.00341021 0.00806688 -0.00710975
internal_weight=0 7025.58 4592.11 4785.26 2002.91 2589.2 2240.33
internal_count=32101 19728 12373 13311 5433 6940 6417
is_linear=0
shrinkage=0.00735912


Tree=50
num_leaves=8
num_cat=0
split_feature=2 2 2 18 28 18 2
split_gain=4676.36 838.323 420.884 126.503 98.049 77.698 31.5081
threshold=2.8100000000000005 1.4700000000000002 7.2500000000000009 1.0000000180025095e-35 2.5000000000000004 inf 18.000000000000004
decision_type=2 2 2 10 10 8 2
left_child=1 5 3 -2 -3 -1 -4
right_child=2 4 6 -5 -6 -7 -8
leaf_value=0.011051746697069239 -0.0028776983067087536 0.0021664695352413632 -0.0049509190314928299 0.0004483580539629386 0.0057128122647248586 0.0078939942495000852 -0.006416078004136315
leaf_weight=1159.1512842476368 2259.1138918101788 1577.7423289418221 1501.5460892617702 850.98758658766747 579.40802276134491 683.68803027272224 1780.1247242987156
leaf_count=3284 7051 4735 4859 2649 1739 1953 5831
internal_value=0 0.00623737 -0.00390817 -0.00196666 0.0031209 0.00988293 -0.00574698
internal_weight=0 3999.99 6391.77 3110.1 2157.15 1842.84 3281.67
internal_count=32101 11711 20390 9700 6474 5237 10690
is_linear=0
shrinkage=0.00735912


Tree=51
num_leaves=8
num_cat=0
split_feature=97 97 3 81 36 67 29
split_gain=1606.21 572.875 242.731 133.538 89.2056 62.7875 24.121
threshold=0.26831564110438794 0.54142607305919255 6.7500000000000009 81.500000000000014 1.0000000180025095e-35 2.5000000000000004 1.5000000000000002
decision_type=2 2 2 2 2 2 10
left_child=2 3 4 -2 -1 -3 -4
right_child=1 5 6 -5 -6 -7 -8
leaf_value=-0.001052322060588873 0.00066802045060193951 0.0064183829079022241 -0.0059993891703010623 0.0034933331668835607 -0.0050409865738808551 0.011074161587462382 -0.0042308492124203826
leaf_weight=2761.3101089000702 1753.4059085249901 249.64708715677261 619.27615174651146 1881.7243154644966 341.73533996939659 447.81384375691414 1390.7116740047932
leaf_count=9497 5808 782 2211 6236 1179 1399 4989
internal_value=0 0.00330504 -0.00278499 0.00213151 -0.00149289 0.00941453 -0.00477784
internal_weight=0 4332.59 5113.03 3635.13 3103.05 697.461 2009.99
internal_count=32101 14225 17876 12044 10676 2181 7200
is_linear=0
shrinkage=0.00735912


Tree=52
num_leaves=8
num_cat=0
split_feature=98 93 3 98 78 3 48
split_gain=4945.46 618.891 281.664 214.524 51.0194 46.6627 22.3162
threshold=0.39544768956533666 0.60423512230741161 4.8750000000000009 0.2336257309941521 293.50000000000006 6.7500000000000009 222.50000000000003
decision_type=2 2 2 2 2 2 2
left_child=1 3 4 -1 -2 -4 -3
right_child=2 6 5 -5 -6 -7 -8
leaf_value=-0.0029006972409633472 0.0036666706175683202 -0.0058967283506816681 0.0065738796037247433 0.0009364533921205787 0.0081100910074586464 0.0087630673069463531 -0.0074932309361193921
leaf_weight=4437.0728860199451 1448.4750369489193 782.86769667267799 794.6420833170414 958.24107456207275 156.48818558454514 1688.967898607254 1343.8172717392445
leaf_count=12370 3920 2241 2135 2624 422 4515 3874
internal_value=0 -0.0035449 0.00651039 -0.00221861 0.00410284 0.00806448 -0.00690762
internal_weight=0 7522 4088.57 5395.31 1604.96 2483.61 2126.68
internal_count=32101 21109 10992 14994 4342 6650 6115
is_linear=0
shrinkage=0.00735912


Tree=53
num_leaves=8
num_cat=0
split_feature=93 98 93 7 7 93 93
split_gain=4603.62 851.553 417.402 231.754 146.618 62.635 31.349
threshold=0.3560342096927463 -0.57359307359307343 0.13809523809523813 1.0000000180025095e-35 1.0000000180025095e-35 0.956959706959707 0.055727554179566569
decision_type=2 2 2 8 8 2 2
left_child=2 5 6 -3 -4 -2 -1
right_child=1 3 4 -5 -6 -7 -8
leaf_value=-0.0063940773260700188 0.0090101135640566488 0.0050438781692220174 -3.092607203040981e-05 0.00017150233450847227 -0.0032851257308283695 0.012022421863757493 -0.0049298639639273039
leaf_weight=1772.1627502143383 1242.4757075309753 1338.6776049435139 1270.257683724165 875.91084182262421 1836.6661815047264 553.12860959768295 1496.8250708281994
leaf_count=5831 3525 3982 3931 2648 5769 1556 4859
internal_value=0 0.00617441 -0.00388885 0.00311835 -0.00195574 0.00994105 -0.00572494
internal_weight=0 4010.19 6375.91 2214.59 3106.92 1795.6 3268.99
internal_count=32101 11711 20390 6630 9700 5081 10690
is_linear=0
shrinkage=0.00735912


Tree=54
num_leaves=8
num_cat=0
split_feature=94 94 19 94 94 32 46
split_gain=1561.1 569.492 242.543 227.702 56.9978 54.3853 27.7909
threshold=0.2817460317460318 0.56847545219638251 1.0000000180025095e-35 0.14835164835164838 0.72478991596638664 1.0000000180025095e-35 2.5000000000000004
decision_type=2 2 8 2 2 2 10
left_child=3 2 -2 6 -3 -5 -1
right_child=1 4 -4 5 -6 -7 -8
leaf_value=-0.0050571849731516965 -0.0011920146200381466 0.0073259448074774356 0.0030903176962890824 -0.00070438718394329701 0.011558418974973362 -0.0027420322377556261 -0.002196831407780684
leaf_weight=1792.3254837691784 959.02511006593704 412.11604383587837 2817.9759198725224 1738.331070035696 308.19546753168106 1204.9992159307003 209.96963429450989
leaf_count=6449 3193 1299 9316 5985 945 4163 751
internal_value=0 0.00314709 0.00200216 -0.0028439 0.00914398 -0.00153978 -0.00475904
internal_weight=0 4497.31 3777 4945.63 720.312 2943.33 2002.3
internal_count=32101 14753 12509 17348 2244 10148 7200
is_linear=0
shrinkage=0.00735912


Tree=55
num_leaves=8
num_cat=0
split_feature=92 92 97 7 64 97 92
split_gain=4938.38 596.036 445.222 318.153 81.4878 51.0708 10.326
threshold=0.51956815114709864 0.13809523809523813 0.19799097813711505 1.0000000180025095e-35 1.5000000000000002 0.14325443272303548 0.045548654244306423
decision_type=2 2 2 10 2 2 2
left_child=1 6 5 -3 -4 -2 -1
right_child=2 3 4 -5 -6 -7 -8
leaf_value=-0.0075847934582350118 0.0086726205381431522 -0.0037032676921794662 0.0023153806349387523 0.00040705352272730788 0.0055231603949399844 0.0064647930167784692 -0.0065349834292964398
leaf_weight=1075.536718338728 1717.338963419199 3293.8085018694401 1388.9960983395576 1475.2880260944366 624.83813092112541 875.81895914673805 1151.5898098647594
leaf_count=3115 4588 9202 3767 4086 1689 2352 3302
internal_value=0 -0.00390019 0.00591183 -0.00243116 0.00331267 0.00792871 -0.00704401
internal_weight=0 6996.22 4606.99 4769.1 2013.83 2593.16 2227.13
internal_count=32101 19705 12396 13288 5456 6940 6417
is_linear=0
shrinkage=0.00735912


Tree=56
num_leaves=8
num_cat=0
split_feature=99 99 3 45 3 99 58
split_gain=4519.94 647.266 405.478 178.651 85.201 82.7032 46.3371
threshold=-0.21950331108177404 0.23801717920136387 3.7250000000000005 16.500000000000004 12.500000000000002 0.59066533141390765 1.5000000000000002
decision_type=2 2 2 8 2 2 2
left_child=2 3 6 -2 -4 -3 -1
right_child=1 5 4 -5 -6 -7 -8
leaf_value=0.0023159220472024999 0.00018128443479314778 -0.0038155824915565928 0.0085200742932259876 -0.0040814621195190076 0.011913183236541749 -0.0059499070651821036 0.0057087249327697617
leaf_weight=584.40545991063118 2639.5101361274719 1700.565642029047 1501.309984087944 666.42311072349548 558.98721414804459 2375.8884587883949 352.95751094818115
leaf_count=1731 8103 5444 4268 2099 1566 7843 1047
internal_value=0 -0.00309815 0.0076168 -0.000677288 0.00944328 -0.00506053 0.00359774
internal_weight=0 7382.39 2997.66 3305.93 2060.3 4076.45 937.363
internal_count=32101 23489 8612 10202 5834 13287 2778
is_linear=0
shrinkage=0.00735912


Tree=57
num_leaves=8
num_cat=0
split_feature=94 94 94 45 36 94 29
split_gain=1538.49 558.643 225.839 99.3329 94.9342 55.4667 24.2063
threshold=0.2817460317460318 0.56847545219638251 0.14835164835164838 15.500000000000002 1.0000000180025095e-35 0.72478991596638664 1.5000000000000002
decision_type=2 2 2 10 2 2 10
left_child=2 3 6 -2 -4 -3 -1
right_child=1 5 4 -5 -6 -7 -8
leaf_value=-0.0059690292960415756 0.0014829673270790307 0.0072527764688053633 -0.0010684578092385482 0.0048305575635560725 -0.0053351071581282999 0.011418829888631059 -0.0041905696428637326
leaf_weight=614.21289917826653 3216.3045797646046 413.63063138723373 2623.0042755007744 565.65627041459084 316.97400730848312 309.90313163399696 1380.3893510699272
leaf_count=2211 10649 1299 9048 1860 1100 945 4989
internal_value=0 0.00311944 -0.00282834 0.00198471 -0.00152986 0.00904422 -0.00474034
internal_weight=0 4505.49 4934.58 3781.96 2939.98 723.534 1994.6
internal_count=32101 14753 17348 12509 10148 2244 7200
is_linear=0
shrinkage=0.00735912


Tree=58
num_leaves=8
num_cat=0
split_feature=96 96 96 105 41 47 96
split_gain=3598.73 764.656 397.44 512.866 170.273 21.2952 17.0071
threshold=0.14460049202480801 0.56750329461793625 0.032281340800029056 77.500000000000014 4.5000000000000009 1.5000000000000002 0.69385721902500441
decision_type=2 2 2 2 2 10 2
left_child=2 4 5 -4 -2 -1 -3
right_child=1 6 3 -5 -6 -7 -8
leaf_value=0.0090279555935730525 -0.00085944253664390594 -0.0057052444231787836 0.0050866197915944156 -0.0036246560760966945 -0.003984837984968962 0.0072314462457932398 -0.0072367952732502929
leaf_weight=953.13082838058472 3981.2673677504063 563.76423326134682 2227.5704611837864 437.38262093067169 1239.0659787356853 625.34656894207001 1567.8521428406239
leaf_count=2547 11033 1611 6002 1225 3457 1672 4554
internal_value=0 -0.00311946 0.00539141 0.00365556 -0.00160199 0.00831924 -0.00683378
internal_weight=0 7351.95 4243.43 2664.95 5220.33 1578.48 2131.62
internal_count=32101 20655 11446 7227 14490 4219 6165
is_linear=0
shrinkage=0.00735912


Tree=59
num_leaves=8
num_cat=0
split_feature=1 97 1 97 1 34 94
split_gain=3427.03 1301.84 574.104 257.125 121.579 101.353 69.6113
threshold=3.5500000000000003 0.27428575409135664 1.925 0.57389809672731928 12.500000000000002 14.500000000000002 0.20526315789473687
decision_type=2 2 2 2 2 8 2
left_child=2 4 6 -3 -2 -4 -1
right_child=1 3 5 -5 -6 -7 -8
leaf_value=-0.0060980756343766056 0.0066773465988998575 0.0022005140735611123 0.00012253915055081464 -0.0042380461955795739 0.010134149290097703 -0.0032375109708073489 -0.004088284414640252
leaf_weight=2001.9549893438816 891.90283107757568 1074.5331583917141 2013.9990214705467 488.35566109418869 1482.172777235508 640.02685523033142 1780.794328391552
leaf_count=6650 2574 3232 6186 1553 4157 2003 5746
internal_value=0 0.00540416 -0.00331205 0.000186388 0.00883748 -0.000686778 -0.00515303
internal_weight=0 3936.96 6436.78 1562.89 2374.08 2654.03 3782.75
internal_count=32101 11516 20585 4785 6731 8189 12396
is_linear=0
shrinkage=0.00735912


Tree=60
num_leaves=8
num_cat=0
split_feature=3 3 3 45 79 32 85
split_gain=1517.52 547.812 224.091 97.9455 55.2588 53.7093 28.2441
threshold=3.5500000000000003 1.7600000000000002 6.7500000000000009 15.500000000000002 307.50000000000006 1.0000000180025095e-35 4.5000000000000009
decision_type=2 2 2 10 2 2 2
left_child=1 4 5 -3 -1 -2 -4
right_child=2 3 6 -5 -6 -7 -8
leaf_value=0.0069046359370000445 -0.00069012236609701353 0.0014709839123961039 -0.0028190181183134024 0.0047914883622135499 0.01101071017798875 -0.0027176322544148579 -0.0051342577858610652
leaf_weight=366.5067395567894 1735.7295737266541 3219.3460694849491 354.88164195418358 567.0251356959343 360.18605795502663 1201.079283952713 1632.4620974063873
leaf_count=1136 5985 10649 1279 1860 1108 4163 5921
internal_value=0 0.00309383 -0.00281366 0.0019693 0.00894664 -0.00152051 -0.00472271
internal_weight=0 4513.06 4924.15 3786.37 726.693 2936.81 1987.34
internal_count=32101 14753 17348 12509 2244 10148 7200
is_linear=0
shrinkage=0.00735912


Tree=61
num_leaves=8
num_cat=0
split_feature=95 95 3 7 17 3 95
split_gain=4818.44 582.941 409.774 313.881 55.7128 44.3499 9.8673
threshold=0.48997310931351173 0.12932979429329797 4.8750000000000009 1.0000000180025095e-35 3.5000000000000004 6.7500000000000009 0.044351879018701641
decision_type=2 2 2 10 2 2 2
left_child=1 6 4 -3 -2 -4 -1
right_child=2 3 5 -5 -6 -7 -8
leaf_value=-0.0075018306504525045 0.002868266251336439 -0.0036730254246325937 0.0064131353237612725 0.00040781348991283863 0.0059092209254181785 0.0085456855210440871 -0.0064713451509759061
leaf_weight=1087.8848838806152 1708.6101726591587 3293.021040558815 796.49055460095406 1477.3144243061543 407.00801688432693 1691.6903712153435 1125.7472605705261
leaf_count=3172 4623 9216 2135 4095 1100 4515 3245
internal_value=0 -0.00385812 0.00583942 -0.00240863 0.00345528 0.00786487 -0.00697983
internal_weight=0 6983.97 4603.8 4770.34 2115.62 2488.18 2213.63
internal_count=32101 19728 12373 13311 5723 6650 6417
is_linear=0
shrinkage=0.00735912


Tree=62
num_leaves=8
num_cat=0
split_feature=98 97 7 98 7 97 4
split_gain=4371.16 837.92 397.447 294.339 115.621 79.3686 27.1813
threshold=-0.030108780108780122 0.24923050095684895 1.0000000180025095e-35 0.57745826568419301 1.0000000180025095e-35 0.073662783543809285 5.5000000000000009
decision_type=2 2 8 2 8 2 2
left_child=1 5 -3 4 -2 -1 -5
right_child=3 2 -4 6 -6 -7 -8
leaf_value=0.011741083045785189 -0.00088592548510821681 0.005718245816732379 -0.00062704605916783787 -0.0059717465730954244 -0.0035742880181643482 0.0084136634618124945 -0.0024496582210127237
leaf_weight=545.14814251661301 1405.5887980759144 1118.5480751693249 1022.261855751276 2440.1742754280567 2273.8564864099026 1433.4085473120213 128.33553498983383
leaf_count=1516 4359 3321 3098 8109 7226 4044 428
internal_value=0 0.0058803 0.00268709 -0.00388452 -0.00254825 0.00933316 -0.00579718
internal_weight=0 4119.37 2140.81 6247.96 3679.45 1978.56 2568.51
internal_count=32101 11979 6419 20122 11585 5560 8537
is_linear=0
shrinkage=0.00735912


Tree=63
num_leaves=8
num_cat=0
split_feature=6 104 104 49 45 96 87
split_gain=1229.67 801.238 259.459 522.257 174.587 105.116 23.519
threshold=inf 1.0000000180025095e-35 1.0000000180025095e-35 340.50000000000006 7.5000000000000009 0.027763721659609806 10.500000000000002
decision_type=8 2 2 2 10 2 2
left_child=2 6 5 -4 -3 -1 -2
right_child=1 4 3 -5 -6 -7 -8
leaf_value=-0.0045150168883847253 -0.0020778048849203578 0.0057477702967910606 -0.00079546510551696211 0.0073822495617471813 0.011398923987527888 -0.0017506057949961667 -0.0063236606446469053
leaf_weight=965.04149985313416 121.52024179697037 551.09553021192551 3176.5937491357327 487.64211800694466 649.68077504634857 3303.5959624648094 178.93358898162842
leaf_count=3538 427 1780 10684 1546 2015 11475 636
internal_value=0 0.00611944 -0.00114337 0.000292356 0.00880935 -0.00237649 -0.0046193
internal_weight=0 1501.23 7932.87 3664.24 1200.78 4268.64 300.454
internal_count=32101 4858 27243 12230 3795 15013 1063
is_linear=0
shrinkage=0.00735912


Tree=64
num_leaves=8
num_cat=0
split_feature=102 6 3 10 7 3 89
split_gain=3082.01 1276.57 363.266 314.782 229.079 126.744 27.9628
threshold=1.0000000180025095e-35 1.0000000180025095e-35 6.7500000000000009 36.500000000000007 1.0000000180025095e-35 3.9500000000000006 2.5000000000000004
decision_type=2 8 2 2 8 2 2
left_child=1 5 4 -3 -2 -1 -4
right_child=2 3 6 -5 -6 -7 -8
leaf_value=0.00051259514177342006 -0.0041252613973650487 -0.00072598224035725636 0.0088195262734195902 -0.0054666704283433676 0.0045579075907203719 0.0040165127569578383 0.0056819269984709495
leaf_weight=2368.3028891086578 184.98308435082436 924.28687107563019 1462.1745716333389 4271.4131354987621 1455.0886677503586 732.81597620248795 180.28588852286339
leaf_count=6560 500 2573 3901 12162 3921 2003 481
internal_value=0 -0.00239379 0.00603012 -0.00462398 0.00357626 0.0013418 0.00847777
internal_weight=0 8296.82 3282.53 5195.7 1640.07 3101.12 1642.46
internal_count=32101 23298 8803 14735 4421 8563 4382
is_linear=0
shrinkage=0.00735912


Tree=65
num_leaves=8
num_cat=0
split_feature=2 98 2 18 18 18 2
split_gain=4336.79 778.801 403.39 125.724 72.6605 64.816 31.0344
threshold=2.8100000000000005 -0.57359307359307343 7.2500000000000009 1.0000000180025095e-35 1.0000000180025095e-35 1.0000000180025095e-35 18.000000000000004
decision_type=2 2 2 10 10 10 2
left_child=1 5 3 -2 -3 -1 -4
right_child=2 4 6 -5 -6 -7 -8
leaf_value=0.0082779124763690138 -0.0028286222853903444 0.0022800474020142699 -0.0048449778303001787 0.00049391897929431164 0.005422346293316874 0.011109193245670397 -0.0063126551549071118
leaf_weight=1026.9241209030151 2247.4514807462692 1702.2472798228264 1477.4611518383026 847.9287121295929 523.66862151026726 793.0097391307354 1741.7475715875626
leaf_count=2875 7051 5070 4859 2649 1560 2206 5831
internal_value=0 0.0059431 -0.00381605 -0.0019175 0.00302113 0.00951443 -0.00564038
internal_weight=0 4045.85 6314.59 3095.38 2225.92 1819.93 3219.21
internal_count=32101 11711 20390 9700 6630 5081 10690
is_linear=0
shrinkage=0.00735912


Tree=66
num_leaves=7
num_cat=0
split_feature=7 1 2 1 49 73
split_gain=1210.28 478.384 321.551 287.955 250.149 36.116
threshold=inf 1.4200000000000002 1.8150000000000002 1.1300000000000001 367.50000000000006 2.5000000000000004
decision_type=8 2 2 2 2 10
left_child=3 -2 -3 5 -5 -1
right_child=1 2 -4 4 -6 -7
leaf_value=-0.0022963772588833324 -0.0043050839267711211 -0.0029708043222871883 0.008972192680186385 -0.0010858742006532088 0.0033393722849409031 -0.0054666894419322367
leaf_weight=262.21856811642647 207.37719663977623 135.89672213792801 1162.439394980669 6077.6404029428959 780.20825865864754 805.23911243677139
leaf_count=965 743 466 3649 20724 2577 2977
internal_value=0 0.00606095 0.00771947 -0.00113589 -0.000581884 -0.0046914
internal_weight=0 1505.71 1298.34 7925.31 6857.85 1067.46
internal_count=32101 4858 4115 27243 23301 3942
is_linear=0
shrinkage=0.00735912


Tree=67
num_leaves=8
num_cat=0
split_feature=1 1 1 1 90 32 1
split_gain=4661.78 576.498 344.261 142.252 108.426 86.84 73.4802
threshold=1.925 3.6500000000000008 1.3450000000000004 7.7500000000000009 1.0000000180025095e-35 1.0000000180025095e-35 1.1300000000000001
decision_type=2 2 2 2 8 2 2
left_child=2 5 6 -3 -4 -2 -1
right_child=1 3 4 -5 -6 -7 -8
leaf_value=0.0083554144463830939 -0.0022600619672823769 -0.0041603116220127641 0.0039211839434967477 -0.0069935345065138951 -0.0013356460942513307 0.00040877422543531434 0.0059383692292056377
leaf_weight=1622.5731751322746 2111.710203230381 1782.7684332132339 1545.6069820523262 2102.9887698888779 245.28840857744217 957.91417300701141 1202.6912748217583
leaf_count=4328 5880 5038 4182 6137 664 2650 3222
internal_value=0 -0.00381147 0.00572721 -0.00569475 0.00319939 -0.00142624 0.00732811
internal_weight=0 6955.38 4616.16 3885.76 1790.9 3069.62 2825.26
internal_count=32101 19705 12396 11175 4846 8530 7550
is_linear=0
shrinkage=0.00735912


Tree=68
num_leaves=8
num_cat=0
split_feature=96 96 96 73 96 19 2
split_gain=4285.25 749.411 390.846 131.579 92.2923 75.3735 31.6852
threshold=0.32899274471727608 0.64819414072749026 0.13343768498571776 1.5000000000000002 0.2493089035961373 9.5000000000000018 18.000000000000004
decision_type=2 2 2 10 2 8 2
left_child=2 3 6 -2 -4 -3 -1
right_child=1 5 4 -5 -6 -7 -8
leaf_value=-0.0048151433572024595 0.0046123803542855897 0.010467335710238536 -0.0029673037111665897 0.0010253452332644678 -0.00033707958004125781 0.0073537063351430164 -0.0062923188886209848
leaf_weight=1503.1501056551933 1229.5922865569592 1169.2864099740982 1829.7920895814896 1012.5781790614128 1198.6053011715412 676.98714309930801 1733.9191755056381
leaf_count=4955 3658 3247 5814 3017 3684 1895 5831
internal_value=0 0.00585558 -0.00382945 0.00299407 -0.0019274 0.00932827 -0.00560769
internal_weight=0 4088.44 6265.47 2242.17 3028.4 1846.27 3237.07
internal_count=32101 11817 20284 6675 9498 5142 10786
is_linear=0
shrinkage=0.00735912


Tree=69
num_leaves=8
num_cat=0
split_feature=97 7 49 16 3 36 28
split_gain=1481.91 944.857 352.991 296.809 231.897 88.026 72.7526
threshold=0.26831564110438794 inf 340.50000000000006 1.5000000000000002 6.7500000000000009 1.0000000180025095e-35 6.5000000000000009
decision_type=2 8 2 2 2 2 10
left_child=4 2 -2 -3 5 -1 -6
right_child=1 3 -4 -5 6 -7 -8
leaf_value=-0.0010023066845009309 2.8888244512371977e-05 0.005169022375576122 0.0062896256989662521 0.01283815738685245 -0.0051777924721068177 -0.0049849528071507125 -0.00066957049588040941
leaf_weight=2746.2321820259094 2681.8563537597656 541.87438568472862 596.18901377916336 556.04617038369179 1747.7480945289135 338.01497775316238 219.91501981019974
leaf_count=9497 8918 1714 1891 1702 6409 1179 791
internal_value=0 0.00314914 0.00116882 0.0090576 -0.00270105 -0.00144009 -0.00467562
internal_weight=0 4375.97 3278.05 1097.92 5051.91 3084.25 1967.66
internal_count=32101 14225 10809 3416 17876 10676 7200
is_linear=0
shrinkage=0.00735912


Tree=70
num_leaves=8
num_cat=0
split_feature=99 99 97 99 11 97 98
split_gain=4535.95 566.187 254.269 203.922 63.6094 46.4781 23.8959
threshold=0.37282879921497136 -0.41950530459005514 0.19799097813711505 0.19447230428581605 43.500000000000007 0.14325443272303548 -0.63545751633986913
decision_type=2 2 2 2 2 2 2
left_child=1 6 5 -3 -4 -2 -1
right_child=2 3 4 -5 -6 -7 -8
leaf_value=-0.0071325832095409328 0.0083258056381720191 -0.0029088512020698093 0.0068429506303582764 0.00055862575454892539 0.0030290465608868271 0.0062213710200892808 -0.0052863211062830883
leaf_weight=1561.3397970795631 1720.2757408618927 4212.8015189170837 298.23723149299622 1172.7296676635742 1190.7561671733856 878.65199139714241 527.54518190026283
leaf_count=4597 4588 11813 802 3217 3213 2352 1519
internal_value=0 -0.00341564 0.00622562 -0.00215322 0.00379588 0.00761608 -0.00666836
internal_weight=0 7474.42 4087.92 5385.53 1488.99 2598.93 2088.88
internal_count=32101 21146 10955 15030 4015 6940 6116
is_linear=0
shrinkage=0.00735912


Tree=71
num_leaves=8
num_cat=0
split_feature=98 98 98 6 49 18 49
split_gain=4187.44 789.146 286.488 161.805 117.069 63.0024 17.1936
threshold=-0.030108780108780122 -0.57359307359307343 0.57745826568419301 1.5000000000000002 324.50000000000006 1.0000000180025095e-35 302.50000000000006
decision_type=2 2 2 8 2 10 2
left_child=1 5 4 -3 -2 -1 -4
right_child=2 3 6 -5 -6 -7 -8
leaf_value=0.0081182797195805557 -0.0018810037260915285 0.003834114844653035 -0.0052673603362123657 -0.0010361295070433845 -0.0052548479331763591 0.0109022276596892 -0.00655746551797819
leaf_weight=1032.1341911554337 2978.9672244787216 1853.9358938932419 1622.8377802670002 460.10778710246086 687.09601160883904 797.56934306025505 914.06186616420746
leaf_count=2875 9363 5495 5447 1403 2222 2206 3090
internal_value=0 0.00572244 -0.00383179 0.00286441 -0.00251444 0.0093346 -0.00573391
internal_weight=0 4143.75 6202.96 2314.04 3666.06 1829.7 2536.9
internal_count=32101 11979 20122 6898 11585 5081 8537
is_linear=0
shrinkage=0.00735912


Tree=72
num_leaves=8
num_cat=0
split_feature=3 6 3 3 80 25 46
split_gain=1440.07 1117.16 279.535 217.935 189.225 72.2122 28.1599
threshold=3.5500000000000003 1.5000000000000002 1.5900000000000003 6.7500000000000009 73.500000000000014 11.500000000000002 2.5000000000000004
decision_type=2 8 2 2 2 10 10
left_child=1 2 -1 5 -3 -2 -5
right_child=3 4 -4 6 -6 -7 -8
leaf_value=0.007541878710434202 -0.0017994629227829073 0.003380322128093896 3.5819477020493239e-05 -0.0049608911633232788 0.010318017871252513 0.0027513817243599785 -0.0020546708174275382
leaf_weight=295.31827455759048 2721.9990793466568 272.44116222858429 2969.2087533771992 1754.0301504433155 1002.9645436704159 202.21504625678062 205.9738517999649
leaf_count=905 9445 856 9878 6449 3114 703 751
internal_value=0 0.00299921 0.000716223 -0.00275792 0.00883926 -0.00148353 -0.00465731
internal_weight=0 4539.93 3264.53 4884.22 1275.41 2924.21 1960
internal_count=32101 14753 10783 17348 3970 10148 7200
is_linear=0
shrinkage=0.00735912


Tree=73
num_leaves=8
num_cat=0
split_feature=98 97 98 46 38 97 98
split_gain=4464.32 487.983 422.941 124.978 103.467 45.7404 10.6548
threshold=0.27484343613375878 0.19799097813711505 -0.51272338772338755 1.0000000180025095e-35 3.5000000000000004 0.14325443272303548 -0.63545751633986913
decision_type=2 2 2 8 8 2 2
left_child=2 5 6 -4 -3 -2 -1
right_child=1 4 3 -5 -6 -7 -8
leaf_value=-0.0071009749918241709 0.0082577830943375112 0.0043759238098053446 -0.0014811606934012874 -0.0038567421243545937 0.0012010379404185664 0.0061703816542990775 -0.005600481715152943
leaf_weight=1555.6848758757114 1720.3962861895561 1167.6257785856724 2290.4010398983955 2531.6971657276154 1067.7071046829224 879.1442357301712 340.25614017248154
leaf_count=4597 4588 3156 6413 7115 2893 2352 987
internal_value=0 0.00538492 -0.00388822 -0.00272914 0.00286107 0.00755358 -0.00683396
internal_weight=0 4834.87 6718.04 4822.1 2235.33 2599.54 1895.94
internal_count=32101 12989 19112 13528 6049 6940 5584
is_linear=0
shrinkage=0.00735912


Tree=74
num_leaves=8
num_cat=0
split_feature=93 93 93 7 7 3 90
split_gain=4152.36 706.731 393.272 224.006 142.146 68.6139 34.9217
threshold=0.3560342096927463 0.68055555555555569 0.13809523809523813 1.0000000180025095e-35 1.0000000180025095e-35 12.500000000000002 1.0000000180025095e-35
decision_type=2 2 2 8 8 2 8
left_child=2 3 6 -2 -4 -3 -1
right_child=1 5 4 -5 -6 -7 -8
leaf_value=-0.005900445699373329 0.00486920244717898 0.0081438105341843439 7.0100611822925286e-07 5.9618565707468809e-05 -0.0032072458052695811 0.011229219005955787 -0.0036950286533543996
leaf_weight=2717.0284428596497 1297.7156606018543 1320.3976114690304 1266.3248991072178 882.22935310006142 1820.8028958439827 569.53251701593399 465.05724632740021
leaf_count=9130 3821 3671 3931 2653 5769 1566 1560
internal_value=0 0.00578225 -0.00376346 0.00292436 -0.00189045 0.00907637 -0.00557936
internal_weight=0 4069.88 6269.21 2179.95 3087.13 1889.93 3182.09
internal_count=32101 11711 20390 6474 9700 5237 10690
is_linear=0
shrinkage=0.00735912


Tree=75
num_leaves=8
num_cat=0
split_feature=97 97 97 18 25 45 30
split_gain=1438.45 500.344 227.445 159.408 63.0547 50.9466 28.9492
threshold=0.26831564110438794 0.54142607305919255 0.14325443272303548 1.0000000180025095e-35 11.500000000000002 22.500000000000004 1.0000000180025095e-35
decision_type=2 2 2 8 10 10 10
left_child=2 3 6 -2 -4 -3 -1
right_child=1 5 4 -5 -6 -7 -8
leaf_value=-0.0010760900526293475 0.0042321148247932688 0.0072841294003628803 -0.0016879368946497032 0.00094099285524152189 0.0025661423294075958 0.011475571572458385 -0.0048360275595880501
leaf_weight=120.33613777160645 1172.6855326294899 476.47932827472687 2843.951205343008 2498.7797490656376 201.36997783184052 242.91792422533035 1863.7730568647385
leaf_count=436 3845 1449 9863 8199 699 732 6878
internal_value=0 0.00309421 -0.00267028 0.00199322 -0.00140547 0.00870666 -0.00460968
internal_weight=0 4390.86 5029.43 3671.47 3045.32 719.397 1984.11
internal_count=32101 14225 17876 12044 10562 2181 7314
is_linear=0
shrinkage=0.00735912


Tree=76
num_leaves=8
num_cat=0
split_feature=95 6 1 95 30 39 95
split_gain=4478.52 607.091 318.553 218.185 122.703 110.28 76.9329
threshold=0.48997310931351173 1.0000000180025095e-35 1.3450000000000004 0.26320563051354784 2.5000000000000004 3.5000000000000004 0.83105742632346857
decision_type=2 8 2 2 8 8 2
left_child=1 4 6 -3 -1 -4 -2
right_child=2 3 5 -5 -6 -7 -8
leaf_value=-0.0017149825798683075 0.0057578232803463386 -0.0063060450942492149 0.0049647998011470877 -0.0028927185013151342 0.0020457753649973614 0.0012995418005527007 0.0082214455091618854
leaf_weight=1528.6021301448345 1233.4785437583923 3241.9073389470577 911.5032973587513 1482.5889334380627 677.60433745384216 873.61628189682961 1593.9986881315708
leaf_count=4279 3299 9424 2460 4137 1888 2363 4251
internal_value=0 -0.00374735 0.00561076 -0.00523574 -0.000558439 0.00317316 0.00714829
internal_weight=0 6930.7 4612.6 4724.5 2206.21 1785.12 2827.48
internal_count=32101 19728 12373 13561 6167 4823 7550
is_linear=0
shrinkage=0.00735912


Tree=77
num_leaves=8
num_cat=0
split_feature=1 3 95 3 47 34 87
split_gain=3144.72 1144.41 546.039 249.671 108.768 107.878 105.003
threshold=3.5500000000000003 3.4500000000000006 0.48997310931351173 1.6350000000000002 9.5000000000000018 17.500000000000004 10.500000000000002
decision_type=2 2 2 2 8 10 2
left_child=2 3 6 -2 -4 -3 -1
right_child=1 5 4 -5 -6 -7 -8
leaf_value=0.00015446083194144727 -0.0041227441424062363 0.0074628263358063667 -0.0053101557192545461 0.0022169143864288511 0.0009445288843587951 0.011148852697924202 -0.0032594810932906151
leaf_weight=2014.4754247963428 483.70030045509338 1816.1035112142563 3542.7955709695816 1103.162506788969 156.32634028792381 571.53726249933243 643.0239220559597
leaf_count=6174 1557 5081 11859 3299 514 1579 2038
internal_value=0 0.00512824 -0.00321676 0.000282257 -0.00504496 0.00834735 -0.000670628
internal_weight=0 3974.5 6356.62 1586.86 3699.12 2387.64 2657.5
internal_count=32101 11516 20585 4856 12373 6660 8212
is_linear=0
shrinkage=0.00735912


Tree=78
num_leaves=8
num_cat=0
split_feature=94 7 94 16 94 29 68
split_gain=1397.15 936.887 312.901 271.358 214.465 48.3731 32.6554
threshold=0.2817460317460318 inf 0.62903034379079803 1.5000000000000002 0.14835164835164838 2.5000000000000004 11.500000000000002
decision_type=2 8 2 2 2 10 2
left_child=4 2 -2 -3 6 -6 -1
right_child=1 3 -4 -5 5 -7 -8
leaf_value=-0.0050342044610617795 0.00028858649983481207 0.0051143134385339519 0.0076844155724990525 0.012356301907692614 -0.0020841475236464293 -1.4392852670875134e-05 -0.0023927827880672807
leaf_weight=1638.1007078289986 3084.9519445300102 558.11762970685959 344.32469469308853 567.72273796796799 2039.402719527483 877.70251679420471 306.28882187604904
leaf_count=6083 10238 1752 1045 1718 7094 3054 1117
internal_value=0 0.00294603 0.0010325 0.00877056 -0.00272614 -0.0014625 -0.00462
internal_weight=0 4555.12 3429.28 1125.84 4861.49 2917.11 1944.39
internal_count=32101 14753 11283 3470 17348 10148 7200
is_linear=0
shrinkage=0.00735912


Tree=79
num_leaves=8
num_cat=0
split_feature=2 3 93 3 3 78 48
split_gain=3227.25 869.893 729.908 180.855 166.367 81.5594 21.8547
threshold=6.7500000000000009 1.9750000000000003 0.60423512230741161 2.6850000000000005 6.7500000000000009 204.50000000000003 222.50000000000003
decision_type=2 2 2 2 2 2 2
left_child=2 5 3 -1 -3 -2 -4
right_child=1 4 6 -5 -6 -7 -8
leaf_value=-0.0035877354645457247 8.708737952218732e-05 0.0049777850295419195 -0.0056197250402634834 -0.00060586445309787976 0.0081430968833362694 -0.0060660543798981047 -0.0072196074589077099
leaf_weight=1558.2346221506596 180.8413171172142 1940.0122840106487 764.24012139439583 3769.6700836122036 1692.8073472380638 323.55214023590088 1304.0708709359169
leaf_count=4384 504 5202 2241 10461 4515 920 3874
internal_value=0 0.0051963 -0.00291992 -0.00147865 0.00645398 -0.00385472 -0.00663057
internal_weight=0 4137.21 7396.22 5327.9 3632.82 504.393 2068.31
internal_count=32101 11141 20960 14845 9717 1424 6115
is_linear=0
shrinkage=0.00735912


Tree=80
num_leaves=8
num_cat=0
split_feature=96 98 96 73 18 18 90
split_gain=4039.88 717.833 378.434 120.912 118.519 61.8441 34.5559
threshold=0.32899274471727608 -0.57359307359307343 0.13343768498571776 1.5000000000000002 1.0000000180025095e-35 inf 1.0000000180025095e-35
decision_type=2 2 2 10 10 8 8
left_child=2 5 6 -3 -4 -2 -1
right_child=1 3 4 -5 -6 -7 -8
leaf_value=-0.0058455910025201887 0.010089823227546474 0.0043842218810966737 -0.0027805848407897755 0.00096347380409154211 0.00049317047525079577 0.0072637694009725692 -0.0036514033695493483
leaf_weight=2722.3915085196495 1167.4148369133472 1270.27221763134 2195.080003798008 1005.2327256202698 821.4304147362709 676.71138626337051 464.72009781002998
leaf_count=9217 3207 3753 6924 2983 2574 1874 1569
internal_value=0 0.00564249 -0.00375815 0.00287465 -0.00188811 0.0090554 -0.00552688
internal_weight=0 4119.63 6203.62 2275.5 3016.51 1844.13 3187.11
internal_count=32101 11817 20284 6736 9498 5081 10786
is_linear=0
shrinkage=0.00735912


Tree=81
num_leaves=8
num_cat=0
split_feature=6 104 86 92 49 22 10
split_gain=1137.48 734.278 314.324 270.703 239.088 24.5951 22.8194
threshold=inf 1.0000000180025095e-35 6.5000000000000009 0.88502506265664171 367.50000000000006 4.5000000000000009 49.500000000000007
decision_type=8 2 2 2 2 8 2
left_child=3 6 -3 4 -1 -5 -2
right_child=1 2 -4 5 -6 -7 -8
leaf_value=-0.0010665053278151675 -0.0064487402850615921 0.0052117579148176886 0.012790190586663402 -0.0022865180043639033 0.0032516653058758025 -0.0051569080481682922 -0.0022998805264396981
leaf_weight=6062.349365323782 159.47337877750397 717.57057303190231 508.01619613170624 206.18925923109055 783.77919119596481 838.53928658366203 136.57030099630356
leaf_count=20724 574 2269 1526 776 2577 3166 489
internal_value=0 0.0058441 0.00835725 -0.00110465 -0.000571605 -0.00459393 -0.00454818
internal_weight=0 1521.63 1225.59 7890.86 6846.13 1044.73 296.044
internal_count=32101 4858 3795 27243 23301 3942 1063
is_linear=0
shrinkage=0.00735912


Tree=82
num_leaves=8
num_cat=0
split_feature=95 6 94 95 23 11 94
split_gain=4347.77 598.177 367.515 213.941 170.95 90.6295 39.0385
threshold=0.48997310931351173 1.0000000180025095e-35 0.20526315789473687 0.26320563051354784 8.5000000000000018 43.500000000000007 0.14835164835164838
decision_type=2 8 2 2 10 2 2
left_child=1 4 6 -3 -1 -4 -2
right_child=2 3 5 -5 -6 -7 -8
leaf_value=-0.0013452336902959195 0.0080792538831636757 -0.0062497951068897009 0.0061890147631934525 -0.0028652268305672662 0.0046702833490146253 0.0024722565761533394 0.0060794356263637536
leaf_weight=1908.8443863093853 1692.4646256566048 3224.2161566317081 453.76694887876511 1480.4866516888142 295.10805484652519 1669.2326827049255 799.27343165874481
leaf_count=5343 4515 9424 1220 4137 824 4503 2135
internal_value=0 -0.00370343 0.00552166 -0.00518556 -0.000537994 0.00326866 0.00743957
internal_weight=0 6908.66 4614.74 4704.7 2203.95 2123 2491.74
internal_count=32101 19728 12373 13561 6167 5723 6650
is_linear=0
shrinkage=0.00735912


Tree=83
num_leaves=8
num_cat=0
split_feature=99 97 99 79 19 19 79
split_gain=3958.81 734.424 275.741 129.57 99.2843 89.5289 16.6186
threshold=-0.026483464966927842 0.24923050095684895 0.55047262954818132 287.50000000000006 1.0000000180025095e-35 9.5000000000000018 251.50000000000003
decision_type=2 2 2 2 8 8 2
left_child=1 5 3 -2 -3 -1 -4
right_child=2 4 6 -5 -6 -7 -8
leaf_value=0.0098986916234452254 -0.0018764545571647322 0.0051032089040054509 -0.0051991487702802222 -0.0056337335432292629 0.0015659506932486978 0.006655809767058948 -0.0064797730171822924
leaf_weight=1277.3643075227737 3069.4390471577644 593.82810777425766 1563.7995558977127 594.56985485553741 1571.378550440073 737.52320340275764 907.10781106352806
leaf_count=3516 9695 1757 5335 1946 4686 2044 3122
internal_value=0 0.00551594 -0.00377023 -0.00248729 0.0025379 0.00871402 -0.00567104
internal_weight=0 4180.09 6134.92 3664.01 2165.21 2014.89 2470.91
internal_count=32101 12003 20098 11641 6443 5560 8457
is_linear=0
shrinkage=0.00735912


Tree=84
num_leaves=8
num_cat=0
split_feature=98 103 45 98 75 98 75
split_gain=619.226 807.068 513.063 101.824 127.479 87.4784 26.4783
threshold=0.44023815059620691 1.0000000180025095e-35 15.500000000000002 0.84397415953677302 10.500000000000002 -0.94612098916499432 3.5000000000000004
decision_type=2 2 10 2 10 2 8
left_child=1 2 -1 4 -2 -3 -5
right_child=3 5 -4 6 -6 -7 -8
leaf_value=0.0017638352375914494 -0.0023843508471426316 -0.0056263289864627924 0.007958883534055371 -0.0021905387703405098 0.0041632590044877954 -0.0017917529586853583 -0.0050595426486565219
leaf_weight=3579.1738958060741 1511.7687773108482 400.92966902256012 908.19268390536308 219.41728723049164 179.73642635345459 1667.2173860967159 942.21465364098549
leaf_count=11773 5267 1462 2798 828 618 5791 3564
internal_value=0 0.00126541 0.00301864 -0.0028417 -0.00168636 -0.00253711 -0.00452077
internal_weight=0 6555.51 4487.37 2853.14 1691.51 2068.15 1161.63
internal_count=32101 21824 14571 10277 5885 7253 4392
is_linear=0
shrinkage=0.00735912


Tree=85
num_leaves=8
num_cat=0
split_feature=92 92 92 92 38 92 92
split_gain=4261.87 546.618 312.203 138.151 110.547 67.3362 9.79505
threshold=0.51956815114709864 0.13809523809523813 0.74358690844758957 0.2817460317460318 1.5000000000000002 0.88502506265664171 0.045548654244306423
decision_type=2 2 2 2 8 2 2
left_child=1 6 4 -3 -2 -4 -1
right_child=2 3 5 -5 -6 -7 -8
leaf_value=-0.0072844352814596123 0.0049559218843950046 -0.0038881862987538776 0.0056521248300548206 -0.0012929491683572741 0.0012954268188201785 0.0079647914188020908 -0.0062456491935679766
leaf_weight=1038.1557068824768 860.98749661445618 1791.3745359778404 1206.0030106604099 2938.9108566343784 935.07211992144585 1621.8373340964317 1120.4388419091702
leaf_count=3115 2320 5099 3222 8189 2526 4328 3302
internal_value=0 -0.00367806 0.00545527 -0.00227655 0.00305227 0.00698008 -0.00674733
internal_weight=0 6888.88 4623.9 4730.29 1796.06 2827.84 2158.59
internal_count=32101 19705 12396 13288 4846 7550 6417
is_linear=0
shrinkage=0.00735912


Tree=86
num_leaves=8
num_cat=0
split_feature=96 98 96 18 18 18 2
split_gain=3927.07 692.603 371.769 117.392 74.4577 60.3539 31.3821
threshold=0.32899274471727608 -0.57359307359307343 0.13343768498571776 1.0000000180025095e-35 1.0000000180025095e-35 1.0000000180025095e-35 18.000000000000004
decision_type=2 2 2 10 10 10 2
left_child=2 5 6 -4 -3 -2 -1
right_child=1 4 3 -5 -6 -7 -8
leaf_value=-0.0046917327242122263 0.0077045971318114919 0.0020819814852234986 -0.0027615719316222503 0.00049802321027423303 0.0052138031679966682 0.010412189866601262 -0.0061785861761491524
leaf_weight=1473.5027601420879 1044.759005188942 1739.554839849472 2190.6237572729588 821.05268734693527 541.46466863155365 807.52146011590958 1688.3731779456139
leaf_count=4955 2875 5138 6924 2574 1598 2206 5831
internal_value=0 0.00554417 -0.00372407 -0.00187193 0.00282717 0.00888771 -0.00548701
internal_weight=0 4133.3 6173.55 3011.68 2281.02 1852.28 3161.88
internal_count=32101 11817 20284 9498 6736 5081 10786
is_linear=0
shrinkage=0.00735912


Tree=87
num_leaves=8
num_cat=0
split_feature=97 97 97 81 36 67 68
split_gain=1362.1 466.69 220.589 131.288 85.9065 57.6353 35.3247
threshold=0.26831564110438794 0.54142607305919255 0.14325443272303548 81.500000000000014 1.0000000180025095e-35 2.5000000000000004 11.500000000000002
decision_type=2 2 2 2 2 2 2
left_child=2 3 6 -2 -4 -3 -1
right_child=1 5 4 -5 -6 -7 -8
leaf_value=-0.0049700146606283082 0.00049096663900299582 0.0055650571028500019 -0.00093564351446749963 0.0032723067554674156 -0.004916658564272194 0.0099265896622129091 -0.0022266699605075334
leaf_weight=1648.941997051239 1778.1017346680164 260.41804197430611 2702.9782962501049 1909.1643431186676 329.81098657846451 469.08772259950638 306.32852640748024
leaf_count=6188 5808 782 9402 6236 1160 1399 1126
internal_value=0 0.00299737 -0.00261412 0.00193201 -0.0013699 0.00837588 -0.00454208
internal_weight=0 4416.77 4988.06 3687.27 3032.79 729.506 1955.27
internal_count=32101 14225 17876 12044 10562 2181 7314
is_linear=0
shrinkage=0.00735912


Tree=88
num_leaves=8
num_cat=0
split_feature=95 1 97 95 64 97 1
split_gain=4219.08 540.012 368.588 136.259 75.5814 42.2089 9.78631
threshold=0.48997310931351173 7.2500000000000009 0.19799097813711505 0.26320563051354784 1.5000000000000002 0.14325443272303548 22.000000000000004
decision_type=2 2 2 2 2 2 2
left_child=1 3 5 -1 -4 -2 -3
right_child=2 6 4 -5 -6 -7 -8
leaf_value=-0.003884504231648921 0.0079431419842623929 -0.0062158101038315098 0.0021069345570654749 -0.0013022775405990125 0.0051916329832468744 0.0059381155428256558 -0.0072557794677901247
leaf_weight=1772.0371948182583 1718.7020170688629 1116.9190029203892 1388.9394162297249 2962.7991002202034 627.54239830374718 880.87067127227783 1034.0945911705494
leaf_count=5052 4588 3302 3747 8259 1686 2352 3115
internal_value=0 -0.00365968 0.00543311 -0.00226947 0.00306888 0.00726545 -0.00671786
internal_weight=0 6885.85 4616.05 4734.84 2016.48 2599.57 2151.01
internal_count=32101 19728 12373 13311 5433 6940 6417
is_linear=0
shrinkage=0.00735912


Tree=89
num_leaves=8
num_cat=0
split_feature=2 97 2 18 28 18 2
split_gain=3860.21 657.601 377.669 122.161 122.082 83.1813 30.388
threshold=2.8100000000000005 0.24923050095684895 7.2500000000000009 1.0000000180025095e-35 2.5000000000000004 inf 18.000000000000004
decision_type=2 2 2 10 10 8 2
left_child=1 5 3 -2 -3 -1 -4
right_child=2 4 6 -5 -6 -7 -8
leaf_value=0.0096397567111597918 -0.0027470160840528408 0.0014460407634406638 -0.0046847772338186331 0.00053635196116535923 0.0053545537485324632 0.0065222030612444295 -0.0061592009800365962
leaf_weight=1289.2578982710838 2227.7909132540226 1458.1780079603195 1439.6440937519073 844.88985154032707 617.5431934595108 740.47592398524284 1680.321215569973
leaf_count=3535 7051 4316 4859 2649 1816 2044 5831
internal_value=0 0.00552577 -0.00367622 -0.00184322 0.00261076 0.00850474 -0.00548021
internal_weight=0 4105.46 6192.65 3072.68 2075.72 2029.73 3119.97
internal_count=32101 11711 20390 9700 6132 5579 10690
is_linear=0
shrinkage=0.00735912


Tree=90
num_leaves=8
num_cat=0
split_feature=95 96 24 96 95 63 88
split_gain=610.54 764.049 291.921 254.738 99.8834 161.444 28.4335
threshold=0.6088959896234466 0.28724348403646199 5.5000000000000009 0.64819414072749026 0.82544758900668846 2.5000000000000004 1.0000000180025095e-35
decision_type=2 2 10 2 2 2 2
left_child=1 2 -1 -3 5 -2 -6
right_child=4 3 -4 -5 6 -7 -8
